tree
version=v4
num_class=1
num_tree_per_iteration=1
label_index=0
max_feature_idx=25
objective=regression
feature_names=cat__Country_CAN cat__Country_DEU cat__Country_FRA cat__Country_GBR cat__Country_ITA cat__Country_JPN cat__Country_USA num__Bonds_ytd num__CPI_Inflation_pct num__Corruption_Index_index num__GDP_Growth_pct num__Gold_yoy num__Gov_General_government_net_debt_national_currency num__Gov_General_government_net_lending_borrowing_national_currency num__Gov_General_government_revenue_national_currency num__Gov_General_government_total_expenditure_national_currency num__Gov_Gross_national_savings_percent_of_gdp num__Gov_Total_investment_percent_of_gdp num__Gov_Volume_of_exports_of_goods_and_services_percent_change num__Gov_Volume_of_imports_of_goods_and_services_percent_change num__Mil_Expenditure_usd_bil_const num__Political_Regime_ordinal_0_3 num__Political_Rights_index_0_40 num__Stocks_pct num__Terror_Attacks_incidents num__Unemployment_pct
feature_infos=[0:1] [0:1] [0:1] [0:1] [0:1] [0:1] [0:1] [-45.968843946433445:68.75] [-1.3528366999999999:8.0634610000000002] [0.010999999999999999:0.34699999999999998] [-5.6929999999999996:5.7229999999999999] [-15.456916307580991:35.853773128946621] [175.321:726179.80000000005] [-53901:9035.6000000000004] [224.75299999999999:162980.20000000001] [235.05000000000001:207265.60000000001] [11.510999999999999:33.427] [14.814:35.451999999999998] [-23.382999999999999:24.861000000000001] [-15.56:23.641999999999999] [13.213723:854.09630000000004] none [35:40] [-0.49199999999999999:0.64790000000000003] [0:274] [2.0920000000000001:12.367000000000001]
tree_sizes=1378 1398 1374 1377 1382 1377 1375 1407 1390 1373 1407 1380 1373 1399 1378 1398 1611 1378 1378 1509 1396 1605 1495 1268 1377 1492 1375 1492 1376 1374 1491 1494 1283 1383 1389 1281 1381 1287 1493 1389 1287 1409 1407 1525 1496 1391 1390 1522 1496 1493 1430 1395 1384 1392 1272 1424 1500 1518 1612 1381 1609 1497 1168 1383 1613 1422 1412 1430 1417 1410 1505 1610 1518 1404 1378 1502 1407 1412 1498 1501 1501 1405 1533 1254 1257 1499 1259 1512 1526 1370 1505 1403 1275 1404 1254 1273 1392 1279 1536 1510 1371 1610 1536 1509 1510 1395 1493 1253 1518 1419 1538 1393 1279 1388 1436 1290 1400 1506 1510 1513 1534 1509 1422 1491 1538 1509 1522 1420 1529 1274 1521 1509 1404 1525 1388 1489 1389 1406 1491 1523 1369 1396 1408 1415 1393 1419 1523 1524 1514 1389 1417 1404 1516 1511 1529 1436 1423 1424 1401 1427 1419 1413 1280 1429 1416 1520 1406 1627 1506 1416 1401 1409 1530 1509 1391 1412 1508 1296 1414 1430 1508 1409 1505 1531 1528 1406 1408 1284 1434 1277 1531 1387 1430 1398 1417 1396 1513 1392 1415 1416 1491 1403 1410 1399 1402 1180 1514 1180 1498 1437 1534 1436 1382 1298 1410 1536 1618 1170 1418 1511 1421 1404 1529 1381 1317 1502 1297 1179 1423 1300 1436 1415 1418 1367 1316 1498 1533 1404 1289 1295 1526 1269 1423 1537 1298 1293 1498 1282 1402 1307 1278 1297 1410 1517 1314 1198 1433 1287 1410 1520 1531 1415 1411 1416 1409 1426 1409 1531 1293 1317 1507 1424 1312 1428 1326 1371 1380 1516 1302 1413 1415 1264 1270 1269 1379 1314 1297 1516 1289 1411 1368 1410 1406 1411 1434 1521 1421 1308 1390 1399 1303 1302 1396 1306 1441 1438 1388 1417 1432 1436 1412 1412 1296 1431 1306 1410 1433 1509 1412 1429 1411 1421 1403 1398 1524 1292 1514 1305 1289 1417 1518 1519 1393 1260 1536 1510 1498 1510 1521 1525 1512 1323 1527 1301 1432 1514 1301 1287 1525 1514 1522 1167 1404 1299 1359 1286 1513 1490 1402 1544 1391 1285 1510 1293 1524 1287 1391 1153 1285 1392 1387 1284 1390 1308 1394 1525 1399 1289 1363 1499 1535 1285 1538 1426 1296 1424 1379 1403 1265 1301 1520 1266 1271 1403 1280 1388 1519 1299 1272 1413 1404 1418 1406 1168 1395 1287 1411 1398 1285 1299 1290 1398 1287 1298 1422 1420 1204 1376 1169 1433 1419 1377 1281 1420 1168 1435 1172 1403 1430 1270 1304 1419 1502 1409 1420 1314 1536 1395 1502 1533 1417 1286 1395 1421 1406 1516 1427 1420 1296 1537 1318 1539 1304 1251 1410 1320 1399 1402 1398 1419 1537 1420 1386 1321 1404 1523 1249 1371 1421 1308 1517 1423 1439 1289 1498 1318 1421 1426 1375 1401 1267 1410 1318 1321 1384 1414 1518 1307 1403 1369 1511 1506 1419 1308 1383 1310 1396 1539 1531 1519 1518 1402 1308 1399 1428 1523 1635 1506 1304 1422 1536 1324 1423 1492 1284 1269 1294 1526 1402 1418 1321 1537 1291 1398 1516 1538 1520 1369 1523 1411 1518 1424 1425 1308 1390 1309 1422 1376 1390 1440 1421 1371 1422 1418 1267 1538 1536 1287 1422 1309 1301 1414 1423 1270 1422 1373 1417 1416 1423 1423 1424 1404 1294 1390 1418 1419 1429 1416 1288 1534 1417 1415 1423 1404 1536 1536 1278 1416 1172 1413 1298 1517 1389 1406 1366 1437 1301 1321 1270 1414 1395 1420 1419 1403 1508 1536 1418 1512 1364 1506 1420 1399 1469 1633 1307 1436 1371 1630 1367 1276 1523 1434 1389 1433 1391 1401 1395 1387 1514 1436 1416 1406 1403 1505 1501 1519 1390 1308 1423 1505 1529 1533 1424 1405 1318 1406 1424 1291 1425 1293 1408 1403 1422 1286 1519 1506 1282 1425 1515 1303 1409 1288 1309 1279 1519 1422 1510 1385 1526 1639 1270 1536 1534 1425 1417 1513 1393 1522 1406 1269 1334 1517 1406 1390 1309 1389 1291 1511 1426 1522 1412 1520 1485 1292 1518 1522 1533 1388 1388 1411 1412 1385 1387 1531 1393 1427 1522 1525 1398 1405 1336 1277 1411 1425 1546 1396 1541 1524 1387 1528 1439 1432 1501 1524 1535 1271 1524 1384 1378 1271 1407 1277 1418 1319 1406 1408 1400 1337 1489 1638 1318 1535 1389 1528 1322 1420 1309 1410 1395 1267 1310 1535 1395 1308 1401 1631 1487 1319 1295 1419 1425 1293 1277 1423 1404 1402 1421 1425 1321 1422 1384 1193 1418 1325 1391 1303 1525 1147 1525 1424 1407 1321 1526 1375 1304 1385 1378 1408 1514 1510 1321 1307 1391 1289 1421 1423 1417 1404 1524 1422 1391 1303 1279 1289 1307 1397 1433 1526 1295 1527

Tree=0
num_leaves=13
num_cat=0
split_feature=13 23 12 23 10 18 17 23 16 20 10 18
split_gain=2362.5 2699.89 3968.16 2652.58 2624.02 2027.25 1938.73 1928.37 1789.11 1344.56 1075.73 454.051
threshold=3.2840000000000003 0.27830000000000005 464.27650000000006 0.20620000000000002 1.8050000000000004 0.50600000000000012 19.686500000000006 0.096100000000000019 21.810500000000001 56.221643000000007 3.1355000000000004 2.2240000000000006
decision_type=2 2 2 2 2 2 2 2 2 2 2 2
left_child=1 2 -1 4 5 -4 -6 10 11 -7 -8 -3
right_child=-2 8 3 -5 6 9 7 -9 -10 -11 -12 -13
leaf_value=-4.4965505828279859 -4.7396697604120481 -4.6288152226071269 -4.677755456632446 -4.7767492447158411 -4.8050240987400921 -4.5774738313417345 -4.7446644223509589 -4.5432904170613204 -4.4223910497288612 -4.4296592537026314 -4.6177500695285278 -4.5335208240609077
leaf_weight=19 14.999999999999998 10.000000000000005 11.999999999999998 14.999999999999998 9.9999999999999982 16.000000000000004 17.000000000000004 11.999999999999998 10.999999999999998 9.9999999999999982 10.999999999999998 9.9999999999999982
leaf_count=19 15 10 12 15 10 16 17 12 11 10 11 10
internal_value=-4.6199 -4.60816 -4.62934 -4.65383 -4.63288 -4.57024 -4.68049 -4.64935 -4.52483 -4.52062 -4.69481 -4.58117
internal_weight=0 153 122 103 88 38 50 40 31 26 28 20
internal_count=168 153 122 103 88 38 50 40 31 26 28 20
is_linear=0
shrinkage=1


Tree=1
num_leaves=13
num_cat=0
split_feature=7 15 10 22 20 8 10 22 18 10 25 19
split_gain=11812.3 2453.66 3499.54 3183.11 2620.78 2120.21 1573.01 1534.57 1310.88 1139.62 653.038 614.102
threshold=-23.464196117892772 1103.0765000000001 1.7975000000000001 37.500000000000007 450.90350500000005 1.9936592000000002 1.2315000000000003 39.500000000000007 5.0440000000000014 2.6280000000000006 8.4665000000000017 7.8645000000000005
decision_type=2 2 2 2 2 2 2 2 2 2 2 2
left_child=5 2 6 4 8 -1 10 9 -3 -4 -2 -11
right_child=1 3 7 -5 -6 -7 -8 -9 -10 11 -12 -13
leaf_value=0.31660533285140979 0.083771587505936593 -0.17169696138455312 -0.081139745084862963 -0.22622803101172814 0.076819867094357813 0.12595784142081226 0.15185398902211872 -0.14261745886007945 -0.019406003475189209 0.082462775468826272 -0.019242360740900039 -0.023643439660469692
leaf_weight=10.000000000000002 10.000000000000002 13.000000000000002 19 12.999999999999998 11.999999999999998 13.999999999999998 13.999999999999998 14.999999999999998 9.9999999999999982 10.000000000000002 15.999999999999998 11.999999999999998
leaf_count=10 10 13 19 13 12 14 14 15 10 10 16 12
internal_value=0 -0.0342324 -0.00504392 -0.0926093 -0.0429795 0.205394 0.0663948 -0.0560716 -0.105484 -0.0244085 0.0203784 0.0245867
internal_weight=0 144 96 48 35 24 40 56 23 41 26 22
internal_count=168 144 96 48 35 24 40 56 23 41 26 22
is_linear=0
shrinkage=0.01


Tree=2
num_leaves=13
num_cat=0
split_feature=7 11 23 11 7 17 7 11 11 10 12 7
split_gain=11577.2 8912.1 4548.13 3108.09 4426.6 3088.86 2713.14 2600.43 3411.46 2087.03 927.51 830.545
threshold=-23.464196117892772 -12.87722109331945 0.16830000000000003 14.836157524898255 6.8969436935261212 26.065000000000001 29.893157699926395 2.7924694148672828 10.161698222627704 1.9060000000000001 547.5100000000001 -9.228140780896906
decision_type=2 2 2 2 2 2 2 2 2 2 2 2
left_child=2 -2 -1 5 9 6 7 10 -9 -5 -3 -12
right_child=1 3 -4 4 -6 -7 -8 8 -10 -11 11 -13
leaf_value=0.086995654851198187 -0.28362116373502294 0.064314306851695563 0.36622292995452882 -0.061679348483681659 0.073611595413901595 -0.13805483043193817 -0.10675106352025812 0.23232871294021606 0.031644372244675957 -0.25383640385591066 0.037376155853271496 -0.081946591245276562
leaf_weight=14.000000000000002 12.999999999999998 17 9.9999999999999982 10.000000000000002 10.999999999999998 10.999999999999998 10.999999999999998 15.999999999999998 18 12.999999999999998 9.9999999999999947 14.000000000000005
leaf_count=14 13 17 10 10 11 11 11 16 18 13 10 14
internal_value=0 -0.0338901 0.20334 -0.00910758 -0.0913806 0.0197304 0.0399122 0.0614228 0.126084 -0.17029 0.00780128 -0.0322288
internal_weight=0 144 24 131 34 97 86 75 34 23 41 24
internal_count=168 144 24 131 34 97 86 75 34 23 41 24
is_linear=0
shrinkage=0.01


Tree=3
num_leaves=13
num_cat=0
split_feature=7 11 23 11 7 17 7 11 11 10 12 7
split_gain=11346.9 8734.74 4457.62 3046.23 4338.51 3027.39 2659.15 2548.68 3343.57 2045.5 909.053 814.017
threshold=-23.464196117892772 -12.87722109331945 0.16830000000000003 14.836157524898255 6.8969436935261212 26.065000000000001 29.893157699926395 2.7924694148672828 10.161698222627704 1.9060000000000001 547.5100000000001 -9.228140780896906
decision_type=2 2 2 2 2 2 2 2 2 2 2 2
left_child=2 -2 -1 5 9 6 7 10 -9 -5 -3 -12
right_child=1 3 -4 4 -6 -7 -8 8 -10 -11 11 -13
leaf_value=0.086125702496085824 -0.2807849491559542 0.063671166037811949 0.36256070137023927 -0.061062555827200396 0.072875476533716385 -0.13667428368871862 -0.10568355083465576 0.23000542476773261 0.031327927129136193 -0.25129804799189936 0.037002393245697034 -0.081127124641622764
leaf_weight=14.000000000000002 12.999999999999998 17 9.9999999999999982 10.000000000000002 10.999999999999998 10.999999999999998 10.999999999999998 15.999999999999998 18 12.999999999999998 9.9999999999999947 14.000000000000005
leaf_count=14 13 17 10 10 11 11 11 16 18 13 10 14
internal_value=0 -0.0335512 0.201307 -0.00901651 -0.0904668 0.0195331 0.0395131 0.0608086 0.124823 -0.168587 0.00772327 -0.0319065
internal_weight=0 144 24 131 34 97 86 75 34 23 41 24
internal_count=168 144 24 131 34 97 86 75 34 23 41 24
is_linear=0
shrinkage=0.01


Tree=4
num_leaves=13
num_cat=0
split_feature=7 11 23 11 7 11 7 11 10 12 16 7
split_gain=11121.1 8560.92 4368.91 2985.61 4252.18 2545.24 3162.94 3131.56 2004.79 1637.05 721.835 1124.26
threshold=-23.464196117892772 -12.87722109331945 0.16830000000000003 14.836157524898255 6.8969436935261212 2.7924694148672828 1.0000000180025095e-35 10.161698222627704 1.9060000000000001 547.5100000000001 24.593500000000002 -4.4106413558947253
decision_type=2 2 2 2 2 2 2 2 2 2 2 2
left_child=2 -2 -1 5 8 9 7 -7 -5 -3 11 -11
right_child=1 3 -4 4 -6 6 -8 -9 -10 10 -12 -13
leaf_value=0.085264443201678128 -0.277977099785438 0.054065556873877839 0.35893509483337405 -0.060451929144561274 0.072146723703904597 0.27877847498113451 -0.020080766677856444 0.045187004804611207 -0.24878505885601043 0.023830484688282014 -0.12998755427924069 -0.1060306135813395
leaf_weight=14.000000000000002 12.999999999999998 18 9.9999999999999982 10.000000000000002 10.999999999999998 11.000000000000002 18 11.999999999999998 12.999999999999998 14.999999999999998 10.999999999999998 12.000000000000002
leaf_count=14 13 18 10 10 11 11 18 12 13 15 11 12
internal_value=0 -0.0332156 0.199294 -0.00892634 -0.0895621 0.0193377 0.0792037 0.156905 -0.166901 -0.0244927 -0.0617046 -0.0338856
internal_weight=0 144 24 131 34 97 41 23 23 56 38 27
internal_count=168 144 24 131 34 97 41 23 23 56 38 27
is_linear=0
shrinkage=0.01


Tree=5
num_leaves=13
num_cat=0
split_feature=7 11 23 11 7 17 7 11 11 18 24 17
split_gain=10899.7 8390.56 4281.97 2926.2 4167.56 2914.75 2575.99 2458.31 3223.29 1547.46 686.58 626.877
threshold=-23.464196117892772 -12.87722109331945 0.16830000000000003 14.836157524898255 6.8969436935261212 26.065000000000001 29.893157699926395 2.7924694148672828 10.161698222627704 6.3795000000000011 31.500000000000004 20.968000000000004
decision_type=2 2 2 2 2 2 2 2 2 2 2 2
left_child=2 -2 -1 5 9 6 7 10 -9 -5 11 -3
right_child=1 3 -4 4 -6 -7 -8 8 -10 -11 -12 -13
leaf_value=0.084411796799727823 -0.27519732842078576 -0.012872400999069208 0.35534574222564702 -0.086699154827122857 0.071425254344940181 -0.13412935831330039 -0.10415899233384567 0.2258515227586031 0.030780336956183114 -0.25090436501936481 -0.036460739891780052 0.094331849068403251
leaf_weight=14.000000000000002 12.999999999999998 10.000000000000002 9.9999999999999982 12.000000000000002 10.999999999999998 10.999999999999998 10.999999999999998 15.999999999999998 18 10.999999999999998 19 11.999999999999998
leaf_count=14 13 10 10 12 11 11 11 16 18 11 19 12
internal_value=0 -0.0328835 0.197301 -0.00883708 -0.0886665 0.0191444 0.0387491 0.059709 0.122579 -0.165232 0.00757327 0.0456026
internal_weight=0 144 24 131 34 97 86 75 34 23 41 22
internal_count=168 144 24 131 34 97 86 75 34 23 41 22
is_linear=0
shrinkage=0.01


Tree=6
num_leaves=13
num_cat=0
split_feature=7 11 11 7 17 7 11 11 8 10 12 7
split_gain=10682.8 8223.59 2867.97 4084.62 2856.75 2524.73 2409.39 3159.15 2002.57 1947.89 880.006 784.748
threshold=-23.464196117892772 -12.87722109331945 14.836157524898255 6.8969436935261212 26.065000000000001 29.893157699926395 2.7924694148672828 10.161698222627704 1.9936592000000002 1.9060000000000001 547.5100000000001 -9.228140780896906
decision_type=2 2 2 2 2 2 2 2 2 2 2 2
left_child=8 -2 4 9 5 6 10 -8 -1 -4 -3 -12
right_child=1 2 3 -5 -6 -7 7 -9 -10 -11 11 -13
leaf_value=0.30340970373153681 -0.27244535354467536 0.062544342016472534 -0.058652007423341257 0.070711002783341845 -0.13278806485913017 -0.10311739834872158 0.22359301127493381 0.030472533984316721 0.11812666301216398 -0.24429341810540511 0.036164738893508928 -0.079821582308837305
leaf_weight=10.000000000000002 12.999999999999998 17 10.000000000000002 10.999999999999998 10.999999999999998 10.999999999999998 15.999999999999998 18 13.999999999999998 12.999999999999998 9.9999999999999947 14.000000000000005
leaf_count=10 13 17 10 11 11 11 16 18 14 13 10 14
internal_value=0 -0.0325547 -0.00874871 -0.0877798 0.0189529 0.0383616 0.0591119 0.121353 0.195328 -0.16358 0.00749754 -0.0314939
internal_weight=0 144 131 34 97 86 75 34 24 23 41 24
internal_count=168 144 131 34 97 86 75 34 24 23 41 24
is_linear=0
shrinkage=0.01


Tree=7
num_leaves=13
num_cat=0
split_feature=11 11 10 11 11 11 23 16 23 13 11 16
split_gain=9324.22 4474.2 3673.97 3402.31 3255.17 3717.54 1919.16 1869.31 1450.43 504.196 426.936 249.605
threshold=-12.87722109331945 -5.3916305497563473 1.8050000000000004 14.836157524898255 2.7924694148672828 6.5651935601339533 -0.060099999999999994 18.509500000000006 0.16830000000000003 -80.594499999999982 0.067142250629970118 21.892500000000002
decision_type=2 2 2 2 2 2 2 2 2 2 2 2
left_child=-1 -2 4 7 -3 -6 -7 -4 -5 -8 -9 -12
right_child=1 2 3 8 5 6 9 10 -10 -11 11 -13
leaf_value=-0.24708594935280936 0.19291247418948584 -0.059570060793091274 0.095308228174845383 -0.22133038009206449 0.27303983640670776 0.14102677918970585 -0.046415108939011893 -0.083187599915724525 -0.058261989682912824 0.047314447191628528 -0.050190690338611586 0.015222996984209335
leaf_weight=13.999999999999998 13.999999999999998 17 14.999999999999998 12.000000000000002 9.9999999999999982 15.999999999999998 11.999999999999998 12.999999999999998 9.9999999999999982 11.000000000000002 10.000000000000002 13.999999999999998
leaf_count=14 14 17 15 12 10 16 12 13 10 11 10 14
internal_value=0 0.0224624 0.00541735 -0.042962 0.0596608 0.101027 0.0569207 0.0011423 -0.147208 -0.00158793 -0.0370331 -0.0120327
internal_weight=0 154 140 74 66 49 39 52 22 23 37 24
internal_count=168 154 140 74 66 49 39 52 22 23 37 24
is_linear=0
shrinkage=0.01


Tree=8
num_leaves=13
num_cat=0
split_feature=7 11 11 7 16 7 11 11 8 18 11 11
split_gain=10377.1 7902.76 2763.7 3974.53 2393.6 2408.94 2431.9 3336.88 1947.81 1467.56 823.189 558.557
threshold=-23.464196117892772 -12.87722109331945 14.836157524898255 6.8969436935261212 24.593500000000002 29.893157699926395 2.7924694148672828 10.161698222627704 1.9936592000000002 6.3795000000000011 -3.9882874886434601 0.067142250629970118
decision_type=2 2 2 2 2 2 2 2 2 2 2 2
left_child=8 -2 4 9 5 6 10 -8 -1 -4 -3 -12
right_child=1 2 3 -5 -6 -7 7 -9 -10 -11 11 -13
leaf_value=0.29910610818862904 -0.26725004086127646 0.07668726884401765 -0.084622566909529254 0.070010674650018867 -0.093324367254972465 -0.10478857302665712 0.24215519317558826 0.030754328723996877 0.11637376683098931 -0.24453211134130304 -0.0751291667331348 0.016322560485671548
leaf_weight=10.000000000000002 12.999999999999998 12.999999999999991 12.000000000000002 10.999999999999998 15.999999999999998 9.9999999999999982 14.000000000000002 15.999999999999998 13.999999999999998 10.999999999999998 11.000000000000009 17
leaf_count=10 13 13 12 11 16 10 14 16 14 11 11 17
internal_value=0 -0.0320854 -0.00874842 -0.0863296 0.018445 0.0405229 0.0609893 0.129408 0.192512 -0.161101 0.0109268 -0.0196049
internal_weight=0 144 131 34 97 81 71 30 24 23 41 28
internal_count=168 144 131 34 97 81 71 30 24 23 41 28
is_linear=0
shrinkage=0.01


Tree=9
num_leaves=13
num_cat=0
split_feature=7 11 23 11 7 17 7 11 11 10 12 7
split_gain=10170.6 7745.49 4106.68 2708.7 3895.43 2764.24 2406.55 2288.09 3011.96 1851.71 846.31 765.022
threshold=-23.464196117892772 -12.87722109331945 0.16830000000000003 14.836157524898255 6.8969436935261212 26.065000000000001 29.893157699926395 2.7924694148672828 10.161698222627704 1.9060000000000001 547.5100000000001 -9.228140780896906
decision_type=2 2 2 2 2 2 2 2 2 2 2 2
left_child=2 -2 -1 5 9 6 7 10 -9 -5 -3 -12
right_child=1 3 -4 4 -6 -7 -8 8 -10 -11 11 -13
leaf_value=0.080032724652971524 -0.26457754025092489 0.061295575780027055 0.345363263130188 -0.057185756660997844 0.069310565428300344 -0.13100344105200334 -0.10077577937733043 0.21809505537152291 0.029527282168467842 -0.23818563477351118 0.035878186941146861 -0.07864109878029138
leaf_weight=14.000000000000002 12.999999999999998 17 9.9999999999999982 10.000000000000002 10.999999999999998 10.999999999999998 10.999999999999998 15.999999999999998 18 12.999999999999998 9.9999999999999947 14.000000000000005
leaf_count=14 13 17 10 10 11 11 11 16 18 13 10 14
internal_value=0 -0.0317645 0.190587 -0.00866094 -0.0854663 0.0182605 0.0373524 0.0576112 0.118265 -0.15949 0.00731296 -0.0309247
internal_weight=0 144 24 131 34 97 86 75 34 23 41 24
internal_count=168 144 24 131 34 97 86 75 34 23 41 24
is_linear=0
shrinkage=0.01


Tree=10
num_leaves=13
num_cat=0
split_feature=11 11 10 11 11 11 23 23 11 23 13 18
split_gain=8793.24 4308.07 3507.96 3211.58 3117.62 3519.16 1869.93 1782.07 2539.81 1382.71 874.991 502.467
threshold=-12.87722109331945 -5.3916305497563473 1.8050000000000004 14.836157524898255 2.7924694148672828 6.5651935601339533 -0.060099999999999994 0.054450000000000005 2.7924694148672828 0.16830000000000003 -37.639999999999993 2.9490000000000003
decision_type=2 2 2 2 2 2 2 2 2 2 2 2
left_child=-1 -2 4 7 -3 -6 -7 10 -9 -5 -4 -8
right_child=1 2 3 9 5 6 11 8 -10 -11 -12 -13
leaf_value=-0.23994749920708791 0.18906906059810094 -0.058592795098529146 -0.10847757347424823 -0.21583912054697668 0.26593484568595888 0.13868123211897909 -0.050910759839144601 -0.043653704203092128 0.15045567418847766 -0.056623114168643955 0.012283266067504883 0.042658009727795917
leaf_weight=13.999999999999998 13.999999999999998 17 15.000000000000002 12.000000000000002 9.9999999999999982 15.999999999999998 11.000000000000002 13.000000000000002 13.999999999999998 9.9999999999999982 9.9999999999999982 11.999999999999998
leaf_count=14 14 17 15 12 10 16 11 13 14 10 10 12
internal_value=0 0.0218134 0.00508784 -0.0421858 0.0580916 0.098574 0.055661 0.00066443 0.0569956 -0.143468 -0.0601732 -0.00209227
internal_weight=0 154 140 74 66 49 39 52 27 22 25 23
internal_count=168 154 140 74 66 49 39 52 27 22 25 23
is_linear=0
shrinkage=0.01


Tree=11
num_leaves=13
num_cat=0
split_feature=7 11 23 11 7 17 7 11 11 18 12 7
split_gain=9868.42 7444.41 3973.62 2612.82 3783.67 2700.02 2330.31 2197.92 2923.91 1396.05 821.189 742.782
threshold=-23.464196117892772 -12.87722109331945 0.16830000000000003 14.836157524898255 6.8969436935261212 26.065000000000001 29.893157699926395 2.7924694148672828 10.161698222627704 6.3795000000000011 547.5100000000001 -9.228140780896906
decision_type=2 2 2 2 2 2 2 2 2 2 2 2
left_child=2 -2 -1 5 9 6 7 10 -9 -5 -3 -12
right_child=1 3 -4 4 -6 -7 -8 8 -10 -11 11 -13
leaf_value=0.078986225277185421 -0.25953228418643659 0.060483894558513863 0.33998280620574955 -0.082434854299450896 0.068467571952126244 -0.1297182857990265 -0.099252047755501491 0.21441263560205698 0.028621376661790744 -0.23840011943470349 0.035467271327972422 -0.077375098679746859
leaf_weight=14.000000000000002 12.999999999999998 17 9.9999999999999982 12.000000000000002 10.999999999999998 10.999999999999998 10.999999999999998 15.999999999999998 18 10.999999999999998 9.9999999999999947 14.000000000000005
leaf_count=14 13 17 10 12 11 11 11 16 18 11 10 14
internal_value=0 -0.0312891 0.187735 -0.00863905 -0.0840728 0.0178017 0.0366705 0.0566058 0.116053 -0.157027 0.00730848 -0.0303574
internal_weight=0 144 24 131 34 97 86 75 34 23 41 24
internal_count=168 144 24 131 34 97 86 75 34 23 41 24
is_linear=0
shrinkage=0.01


Tree=12
num_leaves=13
num_cat=0
split_feature=7 11 23 11 7 17 7 11 11 10 12 7
split_gain=9672.04 7296.26 3894.55 2560.83 3708.38 2646.29 2283.93 2154.19 2865.73 1762.4 804.848 728
threshold=-23.464196117892772 -12.87722109331945 0.16830000000000003 14.836157524898255 6.8969436935261212 26.065000000000001 29.893157699926395 2.7924694148672828 10.161698222627704 1.9060000000000001 547.5100000000001 -9.228140780896906
decision_type=2 2 2 2 2 2 2 2 2 2 2 2
left_child=2 -2 -1 5 9 6 7 10 -9 -5 -3 -12
right_child=1 3 -4 4 -6 -7 -8 8 -10 -11 11 -13
leaf_value=0.07819636553525923 -0.25693696489700907 0.05987905540887048 0.33658297824859618 -0.055649808406829815 0.067782895565032961 -0.1284211062301289 -0.098259526382793075 0.21226850880309939 0.028335162210795614 -0.23223117727499742 0.035112599134445206 -0.076601348561899971
leaf_weight=14.000000000000002 12.999999999999998 17 9.9999999999999982 10.000000000000002 10.999999999999998 10.999999999999998 10.999999999999998 15.999999999999998 18 12.999999999999998 9.9999999999999947 14.000000000000005
leaf_count=14 13 17 10 10 11 11 11 16 18 13 10 14
internal_value=0 -0.0309762 0.185857 -0.00855266 -0.0832321 0.0176236 0.0363038 0.0560397 0.114892 -0.155457 0.00723539 -0.0300539
internal_weight=0 144 24 131 34 97 86 75 34 23 41 24
internal_count=168 144 24 131 34 97 86 75 34 23 41 24
is_linear=0
shrinkage=0.01


Tree=13
num_leaves=13
num_cat=0
split_feature=7 11 23 11 7 16 7 11 11 10 11 11
split_gain=9479.56 7151.07 3817.04 2509.87 3634.58 2244.56 2206.15 2208.45 3071.88 1727.33 772.39 550.115
threshold=-23.464196117892772 -12.87722109331945 0.16830000000000003 14.836157524898255 6.8969436935261212 24.593500000000002 29.893157699926395 2.7924694148672828 10.161698222627704 1.9060000000000001 -3.9882874886434601 0.067142250629970118
decision_type=2 2 2 2 2 2 2 2 2 2 2 2
left_child=2 -2 -1 5 9 6 7 10 -9 -5 -3 -12
right_child=1 3 -4 4 -6 -7 -8 8 -10 -11 11 -13
leaf_value=0.077414401812212791 -0.25436759765331562 0.07440490392538221 0.33321715164184568 -0.055093310713767982 0.067105067643252289 -0.090786150358617312 -0.10023389434814453 0.23179033223007403 0.028957201582379639 -0.22990886587363021 -0.073971958593888637 0.016786090731620788
leaf_weight=14.000000000000002 12.999999999999998 12.999999999999991 9.9999999999999982 10.000000000000002 10.999999999999998 15.999999999999998 9.9999999999999982 14.000000000000002 15.999999999999998 12.999999999999998 11.000000000000009 17
leaf_count=14 13 13 10 10 11 16 10 14 16 13 11 17
internal_value=0 -0.0306665 0.183999 -0.00846713 -0.0823998 0.0174474 0.0388269 0.0584129 0.123613 -0.153902 0.0107057 -0.0188689
internal_weight=0 144 24 131 34 97 81 71 30 23 41 28
internal_count=168 144 24 131 34 97 81 71 30 23 41 28
is_linear=0
shrinkage=0.01


Tree=14
num_leaves=13
num_cat=0
split_feature=7 11 23 11 7 17 7 11 11 18 12 7
split_gain=9290.92 7008.76 3741.09 2459.92 3562.25 2558.43 2195.2 2075.69 2754.72 1338.24 782.848 713.966
threshold=-23.464196117892772 -12.87722109331945 0.16830000000000003 14.836157524898255 6.8969436935261212 26.065000000000001 29.893157699926395 2.7924694148672828 10.161698222627704 6.3795000000000011 547.5100000000001 -9.228140780896906
decision_type=2 2 2 2 2 2 2 2 2 2 2 2
left_child=2 -2 -1 5 9 6 7 10 -9 -5 -3 -12
right_child=1 3 -4 4 -6 -7 -8 8 -10 -11 11 -13
leaf_value=0.076640256345272051 -0.25182392065341658 0.059001419228665974 0.32988498020172119 -0.079331752844154807 0.066434017528187145 -0.1263268262689764 -0.096283178546211948 0.20823113606318658 0.027895287273244723 -0.23203362594951282 0.034841406106948865 -0.07579051852226254
leaf_weight=14.000000000000002 12.999999999999998 17 9.9999999999999982 12.000000000000002 10.999999999999998 10.999999999999998 10.999999999999998 15.999999999999998 18 10.999999999999998 9.9999999999999947 14.000000000000005
leaf_count=14 13 17 10 12 11 11 11 16 18 11 10 14
internal_value=0 -0.0303598 0.182159 -0.00838246 -0.0815758 0.0172729 0.0356403 0.0549891 0.112759 -0.152363 0.00708222 -0.0296939
internal_weight=0 144 24 131 34 97 86 75 34 23 41 24
internal_count=168 144 24 131 34 97 86 75 34 23 41 24
is_linear=0
shrinkage=0.01


Tree=15
num_leaves=13
num_cat=0
split_feature=7 23 15 10 22 20 10 22 18 10 24 17
split_gain=9106.03 3666.64 1982.25 2898.53 2594.25 2370.28 1517.97 1232.36 1193.85 827.333 720.226 406.369
threshold=-23.464196117892772 0.16830000000000003 1103.0765000000001 1.7975000000000001 37.500000000000007 450.90350500000005 1.2315000000000003 39.500000000000007 5.0440000000000014 2.6280000000000006 4.5000000000000009 20.968000000000004
decision_type=2 2 2 2 2 2 2 2 2 2 2 2
left_child=1 -1 3 6 5 8 10 9 -4 -5 -2 -11
right_child=2 -3 4 7 -6 -7 -8 -9 -10 11 -12 -13
leaf_value=0.075873855394976458 0.082564766407012907 0.32658613729476926 -0.16035226770318467 -0.07022369510249088 -0.2031542140703935 0.07620836695035299 0.14514514934537667 -0.12781768088539441 -0.015018603086471559 -0.023118704015558409 -0.025618737358599902 0.06283781059763649
leaf_weight=14.000000000000002 10.000000000000002 9.9999999999999982 13.000000000000002 19 12.999999999999998 11.999999999999998 13.999999999999998 14.999999999999998 9.9999999999999982 11.000000000000002 15.999999999999998 10.999999999999998
leaf_count=14 10 10 13 19 13 12 14 15 10 11 16 11
internal_value=0 0.180337 -0.0300562 -0.0038211 -0.0825265 -0.0377219 0.0611945 -0.0502608 -0.0971637 -0.0218863 0.0159903 0.0198596
internal_weight=0 24 144 96 48 35 40 56 23 41 26 22
internal_count=168 24 144 96 48 35 40 56 23 41 26 22
is_linear=0
shrinkage=0.01


Tree=16
num_leaves=15
num_cat=0
split_feature=7 11 23 11 7 17 7 11 24 10 8 17 24 15
split_gain=8924.82 6844.11 3593.67 2381.58 3452.34 2483.02 2131.08 2041.16 2709.44 1660.48 690.05 655.121 448.692 340.804
threshold=-23.464196117892772 -12.87722109331945 0.16830000000000003 14.836157524898255 6.8969436935261212 26.065000000000001 29.893157699926395 2.7924694148672828 18.500000000000004 1.9060000000000001 2.7695980000000007 20.968000000000004 34.500000000000007 743.59550000000013
decision_type=2 2 2 2 2 2 2 2 2 2 2 2 2 2
left_child=2 -2 -1 5 9 6 7 10 13 -5 11 -3 -12 -9
right_child=1 3 -4 4 -6 -7 -8 8 -10 -11 12 -13 -14 -15
leaf_value=0.075115116877215227 -0.24860294296191288 -0.0063604094765403029 0.32332026863098146 -0.052865234941244107 0.065652036233381783 -0.12426219831813466 -0.094682345823808148 0.0060274419337511048 0.24073460145430134 -0.22426448216805092 0.012184716105461115 0.10547368001937865 -0.082545611202716834 0.083677985026286206
leaf_weight=14.000000000000002 12.999999999999998 11.000000000000002 9.9999999999999982 10.000000000000002 10.999999999999998 10.999999999999998 10.999999999999998 10.000000000000002 10.999999999999998 12.999999999999998 10.000000000000002 9.9999999999999982 9.9999999999999982 12.999999999999998
leaf_count=14 13 11 10 10 11 11 11 10 11 13 10 10 10 13
internal_value=0 -0.0297557 0.178534 -0.00803798 -0.0800564 0.0172056 0.0353003 0.0543644 0.111652 -0.149743 0.00685764 0.0468939 -0.0351804 0.0499169
internal_weight=0 144 24 131 34 97 86 75 34 23 41 21 20 23
internal_count=168 144 24 131 34 97 86 75 34 23 41 21 20 23
is_linear=0
shrinkage=0.01


Tree=17
num_leaves=13
num_cat=0
split_feature=7 11 23 11 7 17 7 11 11 10 12 7
split_gain=8747.22 6707.91 3522.16 2334.19 3383.64 2433.61 2088.68 2000.54 2671.29 1627.44 778.349 692.618
threshold=-23.464196117892772 -12.87722109331945 0.16830000000000003 14.836157524898255 6.8969436935261212 26.065000000000001 29.893157699926395 2.7924694148672828 10.161698222627704 1.9060000000000001 547.5100000000001 -9.228140780896906
decision_type=2 2 2 2 2 2 2 2 2 2 2 2
left_child=2 -2 -1 5 9 6 7 10 -9 -5 -3 -12
right_child=1 3 -4 4 -6 -7 -8 8 -10 -11 11 -13
leaf_value=0.074363962837627945 -0.24611691795862636 0.058558860806857842 0.32008706283569338 -0.052336582093499583 0.064995516213503746 -0.1230195770480416 -0.093735525066202335 0.20455057309940458 0.026966555300686094 -0.22202183164083042 0.03368192648887635 -0.075283442948545692
leaf_weight=14.000000000000002 12.999999999999998 17 9.9999999999999982 10.000000000000002 10.999999999999998 10.999999999999998 10.999999999999998 15.999999999999998 18 12.999999999999998 9.9999999999999947 14.000000000000005
leaf_count=14 13 17 10 10 11 11 11 16 18 13 10 14
internal_value=0 -0.0294581 0.176749 -0.0079576 -0.0792559 0.0170335 0.0349473 0.0538208 0.110536 -0.148246 0.00678907 -0.0298812
internal_weight=0 144 24 131 34 97 86 75 34 23 41 24
internal_count=168 144 24 131 34 97 86 75 34 23 41 24
is_linear=0
shrinkage=0.01


Tree=18
num_leaves=13
num_cat=0
split_feature=7 11 23 11 7 17 7 11 11 10 12 7
split_gain=8573.15 6574.42 3452.07 2287.74 3316.3 2385.18 2047.11 1960.73 2618.13 1595.05 762.86 678.835
threshold=-23.464196117892772 -12.87722109331945 0.16830000000000003 14.836157524898255 6.8969436935261212 26.065000000000001 29.893157699926395 2.7924694148672828 10.161698222627704 1.9060000000000001 547.5100000000001 -9.228140780896906
decision_type=2 2 2 2 2 2 2 2 2 2 2 2
left_child=2 -2 -1 5 9 6 7 10 -9 -5 -3 -12
right_child=1 3 -4 4 -6 -7 -8 8 -10 -11 11 -13
leaf_value=0.073620324049677152 -0.24365574877995713 0.057973274413277126 0.31688620042800902 -0.051813216350972635 0.064345562458038325 -0.12178938150405884 -0.092798168442466036 0.20250506349373609 0.026696890915433563 -0.21980161199202905 0.033345103502273571 -0.074530608441148449
leaf_weight=14.000000000000002 12.999999999999998 17 9.9999999999999982 10.000000000000002 10.999999999999998 10.999999999999998 10.999999999999998 15.999999999999998 18 12.999999999999998 9.9999999999999947 14.000000000000005
leaf_count=14 13 17 10 10 11 11 11 16 18 13 10 14
internal_value=0 -0.0291635 0.174981 -0.00787803 -0.0784633 0.0168632 0.0345978 0.0532826 0.10943 -0.146763 0.00672118 -0.0295824
internal_weight=0 144 24 131 34 97 86 75 34 23 41 24
internal_count=168 144 24 131 34 97 86 75 34 23 41 24
is_linear=0
shrinkage=0.01


Tree=19
num_leaves=14
num_cat=0
split_feature=11 11 10 18 11 18 11 10 11 12 18 10 24
split_gain=7457.93 3936.81 3219.05 2255.81 1436.47 2570.62 2640.2 1021.65 2163.43 618.295 461.921 402.531 345.661
threshold=-12.87722109331945 -5.3916305497563473 0.23300000000000001 1.0000000180025095e-35 1.0000000180025095e-35 4.509500000000001 6.5651935601339533 1.8050000000000004 14.836157524898255 810.26300000000003 9.6280000000000019 1.8050000000000004 31.500000000000004
decision_type=2 2 2 2 2 2 2 2 2 2 2 2 2
left_child=-1 -2 3 -3 9 6 -6 -7 10 -4 12 -8 -9
right_child=1 2 4 -5 5 7 11 8 -10 -11 -12 -13 -14
leaf_value=-0.22097886868885586 0.17997544765472412 0.0041249898346987623 -0.039207083702087385 0.198700990493481 0.19772090960632663 0.029232914140995811 0.049703049540519698 -0.0053150053457780297 -0.16055640149116518 -0.15040917730331421 0.033777214835087457 -0.04002219971269369 -0.086549075365066522
leaf_weight=13.999999999999998 13.999999999999998 11.000000000000002 10.000000000000002 12.999999999999998 11.000000000000002 17 10.000000000000002 11.000000000000002 14.999999999999998 9.9999999999999982 11.999999999999998 9.9999999999999982 9.9999999999999982
leaf_count=14 14 11 10 13 11 17 10 11 15 10 12 10 10
internal_value=0 0.020089 0.00410034 0.10952 -0.0177107 -0.00164872 0.0732819 -0.0373849 -0.0609787 -0.0948081 -0.015716 0.00484042 -0.0439979
internal_weight=0 154 140 24 116 96 31 65 48 20 33 20 21
internal_count=168 154 140 24 116 96 31 65 48 20 33 20 21
is_linear=0
shrinkage=0.01


Tree=20
num_leaves=13
num_cat=0
split_feature=7 11 23 11 7 11 7 11 10 19 19 7
split_gain=8297.74 6321.03 3351.58 2209.79 3244.1 1917 2644.69 2525.7 1533.88 1412.32 1161.54 768.863
threshold=-23.464196117892772 -12.87722109331945 0.16830000000000003 14.836157524898255 6.8969436935261212 2.7924694148672828 1.0000000180025095e-35 10.161698222627704 1.9060000000000001 1.2065000000000003 5.322000000000001 -11.97124076348843
decision_type=2 2 2 2 2 2 2 2 2 2 2 2
left_child=2 -2 -1 5 8 9 7 -7 -5 -3 -11 -12
right_child=1 3 -4 4 -6 6 -8 -9 -10 10 11 -13
leaf_value=0.072272882461547838 -0.23900939746544911 -0.12925111770629882 0.31197210788726809 -0.051632921531796439 0.064053303328427402 0.24895305690440256 -0.022335841125912137 0.039171325328449406 -0.21636891108292802 0.070680370852351196 0.027177566488583889 -0.076160028874874094
leaf_weight=14.000000000000002 12.999999999999998 9.9999999999999982 9.9999999999999982 10.000000000000002 10.999999999999998 11.000000000000002 18 11.999999999999998 12.999999999999998 15.999999999999998 11.999999999999995 18.000000000000007
leaf_count=14 13 10 10 10 11 11 18 12 13 16 12 18
internal_value=0 -0.0286913 0.172148 -0.00781999 -0.0771923 0.0164961 0.0684511 0.139502 -0.144745 -0.0215424 0.00187253 -0.034825
internal_weight=0 144 24 131 34 97 41 23 23 56 46 30
internal_count=168 144 24 131 34 97 41 23 23 56 46 30
is_linear=0
shrinkage=0.01


Tree=21
num_leaves=15
num_cat=0
split_feature=7 11 23 11 7 17 7 11 24 7 8 17 24 14
split_gain=8132.61 6195.24 3284.89 2165.81 3184.2 2316.63 1956.59 1873.4 2586.57 707.495 665.106 641.197 430.452 332.618
threshold=-23.464196117892772 -12.87722109331945 0.16830000000000003 14.836157524898255 -4.0097785326470854 26.065000000000001 29.893157699926395 2.7924694148672828 18.500000000000004 7.9049606396468093 2.7695980000000007 20.968000000000004 34.500000000000007 692.0680000000001
decision_type=2 2 2 2 2 2 2 2 2 2 2 2 2 2
left_child=2 -2 -1 5 -5 6 7 10 13 -6 11 -3 -12 -9
right_child=1 3 -4 4 9 -7 -8 8 -10 -11 12 -13 -14 -15
leaf_value=0.07155016192368098 -0.23661930695462688 -0.0068159663677215552 0.30885239076614379 -0.19208796430911337 -0.054929773807525617 -0.12031428721818058 -0.090738366192037415 0.003280565947294234 0.23308056874708696 0.064023590326309207 0.011684496402740474 0.10382323908805847 -0.081100377202033988 0.07999288852398212
leaf_weight=14.000000000000002 12.999999999999998 11.000000000000002 9.9999999999999982 13.999999999999998 10.000000000000002 10.999999999999998 10.999999999999998 10.000000000000002 10.999999999999998 9.9999999999999982 10.000000000000002 9.9999999999999982 9.9999999999999982 12.999999999999998
leaf_count=14 13 11 10 14 10 11 11 10 11 10 10 10 10 13
internal_value=0 -0.0284043 0.170426 -0.00774179 -0.0764204 0.0163311 0.033809 0.052076 0.106959 0.00454691 0.00656336 0.0458694 -0.0347079 0.0466397
internal_weight=0 144 24 131 34 97 86 75 34 20 41 21 20 23
internal_count=168 144 24 131 34 97 86 75 34 20 41 21 20 23
is_linear=0
shrinkage=0.01


Tree=22
num_leaves=14
num_cat=0
split_feature=7 11 23 11 7 17 7 11 24 18 12 7 14
split_gain=7970.78 6071.96 3219.52 2122.72 3120.86 2270.53 1917.65 1836.11 2535.09 1207.17 741.485 650.559 325.999
threshold=-23.464196117892772 -12.87722109331945 0.16830000000000003 14.836157524898255 6.8969436935261212 26.065000000000001 29.893157699926395 2.7924694148672828 18.500000000000004 6.3795000000000011 547.5100000000001 -9.228140780896906 692.0680000000001
decision_type=2 2 2 2 2 2 2 2 2 2 2 2 2
left_child=2 -2 -1 5 9 6 7 10 12 -5 -3 -12 -9
right_child=1 3 -4 4 -6 -7 -8 8 -10 -11 11 -13 -14
leaf_value=0.070834656485489422 -0.23425311492039608 0.057026695538969607 0.30576386404037476 -0.072550125991304698 0.062880673408508309 -0.11911114557222886 -0.089830982251600786 0.0032477601766586297 0.23074975967407227 -0.21758147651498971 0.032309352636337295 -0.073295737802982291 0.079192959712101857
leaf_weight=14.000000000000002 12.999999999999998 17 9.9999999999999982 12.000000000000002 10.999999999999998 10.999999999999998 10.999999999999998 10.000000000000002 10.999999999999998 10.999999999999998 9.9999999999999947 14.000000000000005 12.999999999999998
leaf_count=14 13 17 10 12 11 11 11 10 11 11 10 14 13
internal_value=0 -0.0281203 0.168722 -0.00766438 -0.0756562 0.0161678 0.0334709 0.0515552 0.105889 -0.141913 0.00649773 -0.0292936 0.0461733
internal_weight=0 144 24 131 34 97 86 75 34 23 41 24 23
internal_count=168 144 24 131 34 97 86 75 34 23 41 24 23
is_linear=0
shrinkage=0.01


Tree=23
num_leaves=12
num_cat=0
split_feature=7 23 16 7 25 12 22 10 19 10 10
split_gain=7812.16 3155.45 2360.02 1809.43 1725.52 1747.14 1502.01 1653.74 1471.09 1364.39 956.94
threshold=-23.464196117892772 0.16830000000000003 24.593500000000002 29.893157699926395 9.554000000000002 892.61300000000017 37.500000000000007 1.8050000000000004 3.3270000000000004 1.2315000000000003 2.7140000000000004
decision_type=2 2 2 2 2 2 2 2 2 2 2
left_child=1 -1 3 4 6 -6 -2 9 -4 -8 -9
right_child=2 -3 8 -5 5 -7 7 10 -10 -11 -12
leaf_value=0.070126310714653542 0.12200079509190151 0.30270622825622562 -0.20663036108016961 -0.11405116362231117 0.01754219257831573 -0.16938798117637635 0.011363039546542695 -0.085470794533428388 -0.056785450514994174 0.15272616822611201 0.014893794216607746
leaf_weight=14.000000000000002 13.999999999999998 9.9999999999999982 10.000000000000002 13.999999999999998 10.000000000000002 9.9999999999999982 18.000000000000004 19 19 10.999999999999998 19
leaf_count=14 14 10 10 14 10 10 18 19 19 11 19
internal_value=0 0.167035 -0.0278391 -0.0075096 0.00725854 -0.0759229 0.0277972 0.00811283 -0.108456 0.0649835 -0.0352885
internal_weight=0 24 144 115 101 20 81 67 29 29 38
internal_count=168 24 144 115 101 20 81 67 29 29 38
is_linear=0
shrinkage=0.01


Tree=24
num_leaves=13
num_cat=0
split_feature=7 11 11 7 17 7 11 11 8 12 7 7
split_gain=7656.69 5910.74 2067.88 3053.13 2195.22 1846.78 1801.59 2465.78 1683.02 729.24 669.783 639.266
threshold=-23.464196117892772 -12.87722109331945 14.836157524898255 -4.0097785326470854 26.065000000000001 29.893157699926395 2.7924694148672828 10.161698222627704 1.9936592000000002 547.5100000000001 7.9049606396468093 -9.228140780896906
decision_type=2 2 2 2 2 2 2 2 2 2 2 2
left_child=8 -2 4 -4 5 6 9 -8 -1 -3 -5 -11
right_child=1 2 3 10 -6 -7 7 -9 -10 11 -12 -13
leaf_value=0.26444816255569448 -0.23093855461248985 0.056383042335510253 -0.18774791483368194 -0.053072395563125589 -0.11687244902957571 -0.087844220833344894 0.19505192305892707 0.024435521778133185 0.094590047895908358 0.031844444274902357 0.062667186021804808 -0.072840082517691987
leaf_weight=10.000000000000002 12.999999999999998 17 13.999999999999998 10.000000000000002 10.999999999999998 10.999999999999998 15.999999999999998 18 13.999999999999998 9.9999999999999947 9.9999999999999982 14.000000000000005
leaf_count=10 13 17 14 10 11 11 16 18 14 10 10 14
internal_value=0 -0.0275607 -0.00737818 -0.074486 0.0161441 0.0331579 0.0509049 0.104726 0.165364 0.00627305 0.0047974 -0.0292215
internal_weight=0 144 131 34 97 86 75 34 24 41 20 24
internal_count=168 144 131 34 97 86 75 34 24 41 20 24
is_linear=0
shrinkage=0.01


Tree=25
num_leaves=14
num_cat=0
split_feature=7 11 23 11 7 17 7 11 24 12 7 8 14
split_gain=7504.33 5793.12 3078.33 2026.72 2992.37 2151.53 1810.03 1765.74 2447.54 714.728 656.454 626.912 325.54
threshold=-23.464196117892772 -12.87722109331945 0.16830000000000003 14.836157524898255 -4.0097785326470854 26.065000000000001 29.893157699926395 2.7924694148672828 18.500000000000004 547.5100000000001 7.9049606396468093 2.7695980000000007 692.0680000000001
decision_type=2 2 2 2 2 2 2 2 2 2 2 2 2
left_child=2 -2 -1 5 -5 6 7 9 12 -3 -6 -11 -9
right_child=1 3 -4 4 10 -7 -8 8 -10 11 -12 -13 -14
leaf_value=0.067993837722710185 -0.22862917198584629 0.055819211321718555 0.2977141175270081 -0.18587043536560877 -0.052541671991348252 -0.1157037252458659 -0.086965778740969585 0.0021073520481586449 0.22636387044733222 0.022179729441801702 0.062040513992309573 -0.08003835578759512 0.077999026683660655
leaf_weight=14.000000000000002 12.999999999999998 17 9.9999999999999982 13.999999999999998 10.000000000000002 10.999999999999998 10.999999999999998 10.000000000000002 10.999999999999998 12.000000000000002 9.9999999999999982 11.999999999999998 12.999999999999998
leaf_count=14 13 17 10 14 10 11 11 10 11 12 10 12 13
internal_value=0 -0.0272851 0.163711 -0.00730439 -0.0737411 0.0159827 0.0328263 0.0503958 0.103678 0.00621032 0.00474942 -0.0289293 0.0450026
internal_weight=0 144 24 131 34 97 86 75 34 41 20 24 23
internal_count=168 144 24 131 34 97 86 75 34 41 20 24 23
is_linear=0
shrinkage=0.01


Tree=26
num_leaves=13
num_cat=0
split_feature=7 11 11 7 17 7 11 11 8 12 7 7
split_gain=7354.99 5677.83 1986.39 2932.82 2108.72 1774.01 1730.6 2400.78 1635.39 700.505 643.39 622.315
threshold=-23.464196117892772 -12.87722109331945 14.836157524898255 -4.0097785326470854 26.065000000000001 29.893157699926395 2.7924694148672828 10.161698222627704 1.9936592000000002 547.5100000000001 7.9049606396468093 -9.228140780896906
decision_type=2 2 2 2 2 2 2 2 2 2 2 2
left_child=8 -2 4 -4 5 6 9 -8 -1 -3 -5 -11
right_child=1 2 3 10 -6 -7 7 -9 -10 11 -12 -13
leaf_value=0.25974542522430411 -0.22634287788317753 0.055261018767076377 -0.18401172812495911 -0.052016255617141703 -0.11454668830741536 -0.086096120097420445 0.19176931604743006 0.023416874077585012 0.092307860574551995 0.031610858559608469 0.061420108556747434 -0.071676362667764892
leaf_weight=10.000000000000002 12.999999999999998 17 13.999999999999998 10.000000000000002 10.999999999999998 10.999999999999998 15.999999999999998 18 13.999999999999998 9.9999999999999947 9.9999999999999982 14.000000000000005
leaf_count=10 13 17 14 10 11 11 16 18 14 10 10 14
internal_value=0 -0.0270123 -0.00723135 -0.0730037 0.0158229 0.032498 0.0498919 0.102642 0.162074 0.00614822 0.00470193 -0.02864
internal_weight=0 144 131 34 97 86 75 34 24 41 20 24
internal_count=168 144 131 34 97 86 75 34 24 41 20 24
is_linear=0
shrinkage=0.01


Tree=27
num_leaves=14
num_cat=0
split_feature=7 11 11 7 17 7 11 24 8 12 7 8 14
split_gain=7208.63 5564.84 1946.86 2874.46 2066.75 1738.71 1696.16 2381.8 1602.85 686.565 630.587 610.263 320.383
threshold=-23.464196117892772 -12.87722109331945 14.836157524898255 -4.0097785326470854 26.065000000000001 29.893157699926395 2.7924694148672828 18.500000000000004 1.9936592000000002 547.5100000000001 7.9049606396468093 2.7695980000000007 692.0680000000001
decision_type=2 2 2 2 2 2 2 2 2 2 2 2 2
left_child=8 -2 4 -4 5 6 9 12 -1 -3 -5 -11 -8
right_child=1 2 3 10 -6 -7 7 -9 -10 11 -12 -13 -14
leaf_value=0.25714796948432911 -0.22407945174437302 0.054708409589879659 -0.18217161110469274 -0.051496093034744242 -0.11340122333981775 -0.085235159830613569 0.001178699433803558 0.22264168349179353 0.091384781535182674 0.022072186768054957 0.060805905103683479 -0.078779427806536365 0.076466859624936032
leaf_weight=10.000000000000002 12.999999999999998 17 13.999999999999998 10.000000000000002 10.999999999999998 10.999999999999998 10.000000000000002 10.999999999999998 13.999999999999998 12.000000000000002 9.9999999999999982 11.999999999999998 12.999999999999998
leaf_count=10 13 17 14 10 11 11 10 11 14 12 10 12 13
internal_value=0 -0.0267421 -0.00715904 -0.0722737 0.0156646 0.0321731 0.0493929 0.101615 0.160453 0.00608673 0.00465491 -0.0283536 0.0437329
internal_weight=0 144 131 34 97 86 75 34 24 41 20 24 23
internal_count=168 144 131 34 97 86 75 34 24 41 20 24 23
is_linear=0
shrinkage=0.01


Tree=28
num_leaves=13
num_cat=0
split_feature=7 11 23 11 7 17 7 11 11 12 7 7
split_gain=7065.17 5454.1 2989.35 1908.12 2817.26 2025.63 1704.11 1662.41 2337.5 672.902 618.038 605.812
threshold=-23.464196117892772 -12.87722109331945 0.16830000000000003 14.836157524898255 -4.0097785326470854 26.065000000000001 29.893157699926395 2.7924694148672828 10.161698222627704 547.5100000000001 7.9049606396468093 -9.228140780896906
decision_type=2 2 2 2 2 2 2 2 2 2 2 2
left_child=2 -2 -1 5 -5 6 7 9 -9 -3 -6 -11
right_child=1 3 -4 4 10 -7 -8 8 -10 11 -12 -13
leaf_value=0.06452496896897042 -0.22183865501330449 0.054161325097084045 0.29090083932876587 -0.18034989527293616 -0.050981131315231305 -0.11226721078157426 -0.084382806366140192 0.1885443029552698 0.022425373180045022 0.031376581549644483 0.060197846889495851 -0.070531988739967313
leaf_weight=14.000000000000002 12.999999999999998 17 9.9999999999999982 13.999999999999998 10.000000000000002 10.999999999999998 10.999999999999998 15.999999999999998 18 9.9999999999999947 9.9999999999999982 14.000000000000005
leaf_count=14 13 17 10 14 10 11 11 16 18 10 10 14
internal_value=0 -0.0264747 0.158848 -0.00708745 -0.0715509 0.015508 0.0318513 0.048899 0.100599 0.00602587 0.00460836 -0.0280701
internal_weight=0 144 24 131 34 97 86 75 34 41 20 24
internal_count=168 144 24 131 34 97 86 75 34 41 20 24
is_linear=0
shrinkage=0.01


Tree=29
num_leaves=13
num_cat=0
split_feature=7 11 23 11 7 17 7 11 11 10 12 8
split_gain=6924.58 5345.57 2929.86 1870.15 2762.54 1985.32 1670.2 1629.32 2290.98 1464.23 659.511 594.056
threshold=-23.464196117892772 -12.87722109331945 0.16830000000000003 14.836157524898255 6.8969436935261212 26.065000000000001 29.893157699926395 2.7924694148672828 10.161698222627704 1.9060000000000001 547.5100000000001 2.7695980000000007
decision_type=2 2 2 2 2 2 2 2 2 2 2 2
left_child=2 -2 -1 5 9 6 7 10 -9 -5 -3 -12
right_child=1 3 -4 4 -6 -7 -8 8 -10 -11 11 -13
leaf_value=0.063879721718175062 -0.21962026935357315 0.05361971353783327 0.28799183154106139 -0.042199720263481122 0.059505892233415091 -0.11114453902976079 -0.083538981459357523 0.18665885962545872 0.022201118717590968 -0.20315166326669548 0.021962319066127136 -0.077541084190209705
leaf_weight=14.000000000000002 12.999999999999998 17 9.9999999999999982 10.000000000000002 10.999999999999998 10.999999999999998 10.999999999999998 15.999999999999998 18 12.999999999999998 12.000000000000002 11.999999999999998
leaf_count=14 13 17 10 10 11 11 11 16 18 13 12 12
internal_value=0 -0.02621 0.15726 -0.00701657 -0.0708354 0.0153529 0.0315328 0.04841 0.099593 -0.133173 0.00596561 -0.0277894
internal_weight=0 144 24 131 34 97 86 75 34 23 41 24
internal_count=168 144 24 131 34 97 86 75 34 23 41 24
is_linear=0
shrinkage=0.01


Tree=30
num_leaves=14
num_cat=0
split_feature=7 11 23 11 7 17 7 11 24 12 7 7 8
split_gain=6786.78 5239.19 2871.56 1832.93 2722.96 1945.81 1636.96 1596.9 2301.45 646.387 589.748 588.7 318.54
threshold=-23.464196117892772 -12.87722109331945 0.16830000000000003 14.836157524898255 -4.0097785326470854 26.065000000000001 29.893157699926395 2.7924694148672828 18.500000000000004 547.5100000000001 -9.228140780896906 7.9049606396468093 1.4056018500000003
decision_type=2 2 2 2 2 2 2 2 2 2 2 2 2
left_child=2 -2 -1 5 -5 6 7 9 12 -3 -11 -6 -9
right_child=1 3 -4 4 11 -7 -8 8 -10 10 -12 -13 -14
leaf_value=0.063240924445646135 -0.21742407000981845 0.053083515728221224 0.28511191701889038 -0.17708970487117767 -0.049507220268249497 -0.11003309316933155 -0.08270359055562454 -0.000732195973396301 0.21756480910561302 0.031141704320907602 -0.069406626735414742 0.059000810861587524 0.074339182514410754
leaf_weight=14.000000000000002 12.999999999999998 17 9.9999999999999982 13.999999999999998 10.000000000000002 10.999999999999998 10.999999999999998 10.000000000000002 10.999999999999998 9.9999999999999947 14.000000000000005 9.9999999999999982 12.999999999999998
leaf_count=14 13 17 10 14 10 11 11 10 11 10 14 10 13
internal_value=0 -0.0259479 0.155687 -0.00694641 -0.0701271 0.0151994 0.0312175 0.0479259 0.0985971 0.00590595 -0.0275115 0.0047468 0.0416995
internal_weight=0 144 24 131 34 97 86 75 34 41 24 20 23
internal_count=168 144 24 131 34 97 86 75 34 41 24 20 23
is_linear=0
shrinkage=0.01


Tree=31
num_leaves=14
num_cat=0
split_feature=7 11 23 11 7 17 7 11 24 12 8 7 14
split_gain=6651.72 5134.93 2814.42 1796.46 2668.77 1907.09 1604.38 1565.12 2255.65 633.524 578.279 576.984 318.1
threshold=-23.464196117892772 -12.87722109331945 0.16830000000000003 14.836157524898255 -4.0097785326470854 26.065000000000001 29.893157699926395 2.7924694148672828 18.500000000000004 547.5100000000001 2.7695980000000007 7.9049606396468093 692.0680000000001
decision_type=2 2 2 2 2 2 2 2 2 2 2 2 2
left_child=2 -2 -1 5 -5 6 7 9 12 -3 -11 -6 -9
right_child=1 3 -4 4 11 -7 -8 8 -10 10 -12 -13 -14
leaf_value=0.062608516157737784 -0.21524982709151047 0.052552679075914266 0.28226079177856445 -0.17531880795955659 -0.049012148618698105 -0.10893276271494953 -0.081876555518670513 -0.0011198360323905943 0.21538915872573852 0.021850229601065311 -0.07632297923167547 0.058410801887512208 0.073899607383287866
leaf_weight=14.000000000000002 12.999999999999998 17 9.9999999999999982 13.999999999999998 10.000000000000002 10.999999999999998 10.999999999999998 10.000000000000002 10.999999999999998 12.000000000000002 11.999999999999998 9.9999999999999982 12.999999999999998
leaf_count=14 13 17 10 14 10 11 11 10 11 12 12 10 13
internal_value=0 -0.0256884 0.15413 -0.00687694 -0.0694258 0.0150474 0.0309053 0.0474467 0.0976111 0.00584689 -0.0272364 0.00469933 0.0412825
internal_weight=0 144 24 131 34 97 86 75 34 41 24 20 23
internal_count=168 144 24 131 34 97 86 75 34 41 24 20 23
is_linear=0
shrinkage=0.01


Tree=32
num_leaves=12
num_cat=0
split_feature=11 11 10 18 11 18 16 10 11 25 23
split_gain=5849.2 3559.18 2862.16 2017.99 1227.91 2200.6 2667.94 847.021 1830.44 553.608 476.794
threshold=-12.87722109331945 -5.3916305497563473 0.23300000000000001 1.0000000180025095e-35 1.0000000180025095e-35 4.509500000000001 21.387500000000003 1.8050000000000004 14.836157524898255 7.7875000000000005 0.054450000000000005
decision_type=2 2 2 2 2 2 2 2 2 2 2
left_child=-1 -2 3 -3 9 6 -6 -7 10 -4 -9
right_child=1 2 4 -5 5 7 -8 8 -10 -11 -12
leaf_value=-0.19569956438882011 0.1698157581261226 0.0023080270940607239 -0.14187139964103693 0.18634170954044049 0.18293352186679834 0.024465682400828775 -0.007525632130472284 -0.052917322656687568 -0.14926944049199423 -0.036647069692611695 0.023139479905366897
leaf_weight=13.999999999999998 13.999999999999998 11.000000000000002 10.000000000000002 12.999999999999998 12.000000000000002 17 19 17 14.999999999999998 9.9999999999999982 15.999999999999998
leaf_count=14 14 11 10 13 12 17 19 17 15 10 16
internal_value=0 0.0177909 0.00258838 0.101993 -0.0179781 -0.00312784 0.0662005 -0.0361921 -0.0576751 -0.0892592 -0.0160413
internal_weight=0 154 140 24 116 96 31 65 48 20 33
internal_count=168 154 140 24 116 96 31 65 48 20 33
is_linear=0
shrinkage=0.01


Tree=33
num_leaves=13
num_cat=0
split_feature=7 23 16 7 25 12 8 18 19 20 19 16
split_gain=6452.24 2730.24 2053.49 1514.08 1580.55 1511.27 1340.56 1534.04 1876.43 1686.19 1340.45 419.531
threshold=-23.464196117892772 0.16830000000000003 24.593500000000002 29.893157699926395 9.554000000000002 892.61300000000017 1.5739787500000002 6.3795000000000011 1.2065000000000003 56.221643000000007 3.3270000000000004 20.646500000000003
decision_type=2 2 2 2 2 2 2 2 2 2 2 2
left_child=1 -1 3 4 6 -6 -2 8 -8 -10 -4 -9
right_child=2 -3 10 -5 5 -7 7 11 9 -11 -12 -13
leaf_value=0.061658933415476749 0.10293796009487576 0.27800135278701782 -0.19421339654922476 -0.10379590613501412 0.014488974869251246 -0.15936567664146423 -0.043763460012582633 -0.075940018202129145 0.023670068058100603 0.20308850598335265 -0.051176801261148958 0.0040810534060001374
leaf_weight=14.000000000000002 18 9.9999999999999982 10.000000000000002 13.999999999999998 10.000000000000002 9.9999999999999982 12.999999999999998 19.000000000000004 11.000000000000002 9.9999999999999982 19 9.9999999999999982
leaf_count=14 18 10 10 14 10 10 13 19 11 10 19 10
internal_value=0 0.151802 -0.0253003 -0.00633692 0.00717225 -0.0724384 0.0268292 0.00508383 0.0506568 0.109107 -0.1005 -0.0483465
internal_weight=0 24 144 115 101 20 81 63 34 21 29 29
internal_count=168 24 144 115 101 20 81 63 34 21 29 29
is_linear=0
shrinkage=0.01


Tree=34
num_leaves=13
num_cat=0
split_feature=7 11 23 11 7 16 18 7 19 7 7 14
split_gain=6323.84 4888.76 2675.9 1735.9 2582.4 1667.23 1855.22 2570.36 877.444 818.143 563.995 397.358
threshold=-23.464196117892772 -12.87722109331945 0.16830000000000003 14.836157524898255 -4.0097785326470854 24.593500000000002 4.3065000000000007 -1.7176737854980992 5.322000000000001 6.8969436935261212 7.9049606396468093 755.072
decision_type=2 2 2 2 2 2 2 2 2 2 2 2
left_child=2 -2 -1 5 -5 6 7 -3 -8 11 -6 -10
right_child=1 3 -4 4 10 -7 8 -9 9 -11 -12 -13
leaf_value=0.061042347071426244 -0.21000911272489109 0.17154721948835586 0.27522133827209472 -0.17234311614717757 -0.048365548133850078 -0.078422004543244841 0.068915823350350069 -0.009116932238851275 -0.029269876905849996 -0.093381155202021962 0.057841327428817757 0.053264062643051155
leaf_weight=14.000000000000002 12.999999999999998 18 9.9999999999999982 13.999999999999998 10.000000000000002 15.999999999999998 11.999999999999998 13.999999999999998 14.000000000000002 12.999999999999998 9.9999999999999982 9.9999999999999982
leaf_count=14 13 18 10 14 10 16 12 14 14 13 10 10
internal_value=0 -0.0250473 0.150284 -0.00669227 -0.0681778 0.0148594 0.0332853 0.0925067 -0.00538985 -0.029489 0.00473789 0.00511926
internal_weight=0 144 24 131 34 97 81 32 49 37 20 24
internal_count=168 144 24 131 34 97 81 32 49 37 20 24
is_linear=0
shrinkage=0.01


Tree=35
num_leaves=12
num_cat=0
split_feature=11 11 10 18 11 18 16 10 11 25 23
split_gain=5561.71 3422.18 2768.6 1947.93 1179 2080.39 2570.12 815.588 1783.09 531.834 457.927
threshold=-12.87722109331945 -5.3916305497563473 0.23300000000000001 1.0000000180025095e-35 1.0000000180025095e-35 4.509500000000001 21.387500000000003 1.8050000000000004 14.836157524898255 7.7875000000000005 0.054450000000000005
decision_type=2 2 2 2 2 2 2 2 2 2 2
left_child=-1 -2 3 -3 9 6 -6 -7 10 -4 -9
right_child=1 2 4 -5 5 7 -8 8 -10 -11 -12
leaf_value=-0.19082970857620241 0.16641852429934911 0.0022684100541201496 -0.13920077347755427 0.18307903289794922 0.17874630942940709 0.024138208522516139 -0.0081885943287297296 -0.05151130018865361 -0.14686592086156208 -0.036066476821899417 0.023025495931506157
leaf_weight=13.999999999999998 13.999999999999998 11.000000000000002 10.000000000000002 12.999999999999998 12.000000000000002 17 19 17 14.999999999999998 9.9999999999999982 15.999999999999998
leaf_count=14 14 11 10 13 12 17 19 17 15 10 16
internal_value=0 0.0173482 0.00244112 0.100207 -0.0177864 -0.00323491 0.0641733 -0.0353834 -0.056464 -0.0876336 -0.0153722
internal_weight=0 154 140 24 116 96 31 65 48 20 33
internal_count=168 154 140 24 116 96 31 65 48 20 33
is_linear=0
shrinkage=0.01


Tree=36
num_leaves=13
num_cat=0
split_feature=7 11 23 11 7 17 7 11 11 24 17 7
split_gain=6133.92 4698.78 2595.69 1684.24 2520.43 1815.51 1481.09 1478.35 2192.24 588.168 622.867 552.963
threshold=-23.464196117892772 -12.87722109331945 0.16830000000000003 14.836157524898255 -4.0097785326470854 26.065000000000001 29.893157699926395 2.7924694148672828 10.161698222627704 31.500000000000004 20.968000000000004 7.9049606396468093
decision_type=2 2 2 2 2 2 2 2 2 2 2 2
left_child=2 -2 -1 5 -5 6 7 9 -9 10 -3 -6
right_child=1 3 -4 4 11 -7 -8 8 -10 -11 -12 -13
leaf_value=0.060116191421236302 -0.20600072127122146 -0.017598737239837643 0.27106063580513001 -0.17014511721474784 -0.047783090829849224 -0.10641171991825105 -0.078334301764314829 0.17984343402087688 0.018968962513738207 -0.03526567823008487 0.089262073040008549 0.057379937887191777
leaf_weight=14.000000000000002 12.999999999999998 10.000000000000002 9.9999999999999982 13.999999999999998 10.000000000000002 10.999999999999998 10.999999999999998 15.999999999999998 18 19 11.999999999999998 9.9999999999999982
leaf_count=14 13 10 10 14 10 11 11 16 18 19 12 10
internal_value=0 -0.0246683 0.14801 -0.00667346 -0.0672372 0.014555 0.0300275 0.0459206 0.0946746 0.00549048 0.040689 0.00479842
internal_weight=0 144 24 131 34 97 86 75 34 41 22 20
internal_count=168 144 24 131 34 97 86 75 34 41 22 20
is_linear=0
shrinkage=0.01


Tree=37
num_leaves=12
num_cat=0
split_feature=11 11 10 18 11 18 16 10 11 25 23
split_gain=5343.66 3331.75 2697.71 1891.53 1142.86 2018.32 2501.37 789.768 1726.23 516.614 441.433
threshold=-12.87722109331945 -5.3916305497563473 0.23300000000000001 1.0000000180025095e-35 1.0000000180025095e-35 4.509500000000001 21.387500000000003 1.8050000000000004 14.836157524898255 7.7875000000000005 0.054450000000000005
decision_type=2 2 2 2 2 2 2 2 2 2 2
left_child=-1 -2 3 -3 9 6 -6 -7 10 -4 -9
right_child=1 2 4 -5 5 7 -8 8 -10 -11 -12
leaf_value=-0.18705148747989112 0.16409215526921409 0.0022915330800143147 -0.1372630109786987 0.18046564533160284 0.17608089238405225 0.023562359345309876 -0.0083367223488657102 -0.050804724517990563 -0.14470259801546734 -0.035615197181701662 0.022377422451972964
leaf_weight=13.999999999999998 13.999999999999998 11.000000000000002 10.000000000000002 12.999999999999998 12.000000000000002 17 19 17 14.999999999999998 9.9999999999999982 15.999999999999998
leaf_count=14 14 11 10 13 12 17 19 17 15 10 16
internal_value=0 0.0170047 0.00229593 0.0988025 -0.0176709 -0.00334424 0.0630507 -0.0350095 -0.0557538 -0.0864391 -0.0153225
internal_weight=0 154 140 24 116 96 31 65 48 20 33
internal_count=168 154 140 24 116 96 31 65 48 20 33
is_linear=0
shrinkage=0.01


Tree=38
num_leaves=14
num_cat=0
split_feature=7 11 23 11 7 17 7 11 11 10 7 7 8
split_gain=5949.69 4516.24 2517.86 1634.11 2459.99 1779.89 1433.83 1435.43 2137.61 637.064 941.327 542.154 229.744
threshold=-23.464196117892772 -12.87722109331945 0.16830000000000003 14.836157524898255 -4.0097785326470854 26.065000000000001 29.893157699926395 2.7924694148672828 10.161698222627704 3.4375000000000004 1.1260599344767719 7.9049606396468093 2.8091408500000004
decision_type=2 2 2 2 2 2 2 2 2 2 2 2 2
left_child=2 -2 -1 5 -5 6 7 9 -9 10 12 -6 -3
right_child=1 3 -4 4 11 -7 -8 8 -10 -11 -12 -13 -14
leaf_value=0.059204127745968942 -0.20207020301085252 -0.020348159983754145 0.26696214067935947 -0.16797543014798844 -0.047207271337509134 -0.1055172963034023 -0.077041939226063824 0.17735648997128009 0.018499107211828233 0.074778894424438483 0.062841810703277587 0.0569227900505066 -0.086575216054916387
leaf_weight=14.000000000000002 12.999999999999998 10.000000000000005 9.9999999999999982 13.999999999999998 10.000000000000002 10.999999999999998 10.999999999999998 15.999999999999998 18 9.9999999999999982 9.9999999999999982 9.9999999999999982 10.999999999999998
leaf_count=14 13 10 10 14 10 11 11 16 18 10 10 10 11
internal_value=0 -0.024295 0.14577 -0.00665318 -0.0663088 0.0142571 0.029577 0.0452145 0.0932555 0.00537556 -0.0170126 0.00485776 -0.0550385
internal_weight=0 144 24 131 34 97 86 75 34 41 31 20 21
internal_count=168 144 24 131 34 97 86 75 34 41 31 20 21
is_linear=0
shrinkage=0.01


Tree=39
num_leaves=13
num_cat=0
split_feature=7 23 16 7 7 18 7 13 19 10 13 8
split_gain=5831.29 2467.76 1915.44 1369.62 1352.99 1321.07 3151.11 3219.67 1275.73 1218.74 1140.86 270.344
threshold=-23.464196117892772 0.16830000000000003 24.593500000000002 29.893157699926395 8.3535926526201951 4.3065000000000007 -1.7176737854980992 -51.039499999999997 3.3270000000000004 3.4375000000000004 -78.42049999999999 1.8611690500000002
decision_type=2 2 2 2 2 2 2 2 2 2 2 2
left_child=1 -1 3 4 5 6 7 -2 -4 10 -7 -12
right_child=2 -3 8 -5 -6 9 -8 -9 -10 -11 11 -13
leaf_value=0.058612086709056571 0.2312599423798648 0.26429251432418821 -0.1881032252311706 -0.098430509396961754 0.085705339842372483 -0.15899805329062727 -0.081629178353718343 -0.010689255310730497 -0.048562232083395912 0.042116661270459488 0.0036974418163299534 -0.064379535232271468
leaf_weight=14.000000000000002 10.999999999999998 9.9999999999999982 10.000000000000002 13.999999999999998 18 10.999999999999995 13.999999999999998 11.000000000000002 19 11.999999999999998 10.000000000000005 13.999999999999998
leaf_count=14 11 10 10 14 18 11 14 11 19 12 10 14
internal_value=0 0.144312 -0.024052 -0.00573721 0.00711136 -0.00993312 0.0356519 0.110285 -0.0966798 -0.0448493 -0.0746662 -0.0360141
internal_weight=0 24 144 115 101 83 36 22 29 47 35 24
internal_count=168 24 144 115 101 83 36 22 29 47 35 24
is_linear=0
shrinkage=0.01


Tree=40
num_leaves=12
num_cat=0
split_feature=11 11 10 18 11 18 16 10 11 25 23
split_gain=5105.97 3211.12 2595.74 1824.73 1094.07 1926.6 2410.25 765.728 1656.79 499.558 418.742
threshold=-12.87722109331945 -5.3916305497563473 0.23300000000000001 1.0000000180025095e-35 1.0000000180025095e-35 4.509500000000001 21.387500000000003 1.8050000000000004 14.836157524898255 7.7875000000000005 0.054450000000000005
decision_type=2 2 2 2 2 2 2 2 2 2 2
left_child=-1 -2 3 -3 9 6 -6 -7 10 -4 -9
right_child=1 2 4 -5 5 7 -8 8 -10 -11 -12
leaf_value=-0.18284409693309239 0.16102252560002461 0.0020557757941159329 -0.13466592693328852 0.17705529047892643 0.17243499697496489 0.023349965600406423 -0.0085924259612434779 -0.049698188883416795 -0.14189099160830179 -0.034710178971290591 0.021578225493431091
leaf_weight=13.999999999999998 13.999999999999998 11.000000000000002 10.000000000000002 12.999999999999998 12.000000000000002 17 19 17 14.999999999999998 9.9999999999999982 15.999999999999998
leaf_count=14 14 11 10 13 12 17 19 17 15 10 16
internal_value=0 0.0166222 0.00218216 0.0968472 -0.0174037 -0.00338614 0.0614827 -0.0343236 -0.0547496 -0.0846881 -0.0151399
internal_weight=0 154 140 24 116 96 31 65 48 20 33
internal_count=168 154 140 24 116 96 31 65 48 20 33
is_linear=0
shrinkage=0.01


Tree=41
num_leaves=13
num_cat=0
split_feature=11 11 10 18 25 8 10 11 11 11 18 10
split_gain=5004.36 3147.22 2544.08 1788.42 1080.52 1336.46 1756.41 1477.51 2142.15 1316.27 545.002 213.222
threshold=-12.87722109331945 -5.3916305497563473 0.23300000000000001 1.0000000180025095e-35 4.6420000000000003 3.4570778000000004 2.3835000000000002 2.7924694148672828 13.479091679173917 6.5651935601339533 6.6660000000000013 2.9080000000000004
decision_type=2 2 2 2 2 2 2 2 2 2 2 2
left_child=-1 -2 3 -3 -4 6 7 -6 -9 11 -11 -8
right_child=1 2 4 -5 5 -7 9 8 -10 10 -12 -13
leaf_value=-0.1810156580380031 0.15941230007580348 0.002035218246958472 -0.10313769918221694 0.17528473693590896 -0.033541371864931925 -0.11623704862594604 0.054472395059737277 0.20192874821749596 0.026575940204294105 -0.029698190291722607 -0.11884946137666702 -0.0093288064599037178
leaf_weight=13.999999999999998 13.999999999999998 11.000000000000002 12.999999999999998 12.999999999999998 13.999999999999998 9.9999999999999982 11.000000000000002 11.000000000000002 19 12.000000000000002 15.999999999999998 9.9999999999999982
leaf_count=14 14 11 13 13 14 10 11 11 19 12 16 10
internal_value=0 0.016456 0.00216034 0.0958787 -0.0172297 -0.00638691 0.00542493 0.0512859 0.090872 -0.0357564 -0.0806418 0.0240909
internal_weight=0 154 140 24 116 103 93 44 30 49 28 21
internal_count=168 154 140 24 116 103 93 44 30 49 28 21
is_linear=0
shrinkage=0.01


Tree=42
num_leaves=13
num_cat=0
split_feature=11 11 19 11 11 23 13 16 19 8 24 9
split_gain=4904.78 3084.59 2220.43 1755.48 5035.62 1750.39 1062.41 870.433 799.826 473.631 382.225 290.116
threshold=-12.87722109331945 -5.3916305497563473 5.2585000000000006 2.7924694148672828 7.7227082540801808 -0.060099999999999994 -78.42049999999999 17.685000000000002 8.8885000000000023 2.0562225500000006 9.5000000000000018 0.034000000000000009
decision_type=2 2 2 2 2 2 2 2 2 2 2 2
left_child=-1 -2 3 -3 -5 -6 8 -8 -4 -9 -7 -11
right_child=1 2 6 4 5 10 7 9 -10 11 -12 -13
leaf_value=-0.17920550022806442 0.15781817827905928 -0.038476991782847206 -0.036172203719615929 0.26317590491338211 0.10425651502609252 0.0011591715766833377 0.068090108524669304 0.0084750642627477654 -0.15422459491274573 -0.1028105762004852 -0.081074912875890734 -0.029880578120549523
leaf_weight=13.999999999999998 13.999999999999998 19 12.000000000000002 10.999999999999998 14.999999999999998 13.000000000000002 10.999999999999998 15.999999999999998 10.999999999999998 10.000000000000002 9.9999999999999982 11.999999999999998
leaf_count=14 14 19 12 11 15 13 11 16 11 10 10 12
internal_value=0 0.0162914 0.00213873 0.0431182 0.0747572 0.0202149 -0.0365641 -0.0102465 -0.092632 -0.0329229 -0.0345948 -0.0630306
internal_weight=0 154 140 68 49 38 72 49 23 38 23 22
internal_count=168 154 140 68 49 38 72 49 23 38 23 22
is_linear=0
shrinkage=0.01


Tree=43
num_leaves=14
num_cat=0
split_feature=11 11 10 10 11 11 10 16 14 20 25 19 24
split_gain=4807.17 3023.21 2453.22 1169.87 1062.29 1649.71 2210.46 1759.43 576.203 1041.51 493.814 247.119 181.588
threshold=-12.87722109331945 -5.3916305497563473 0.23300000000000001 -0.91699999999999993 1.0000000180025095e-35 14.836157524898255 1.9060000000000001 18.509500000000006 498.68250000000006 67.075471500000006 7.7875000000000005 6.6405000000000003 7.5000000000000009
decision_type=2 2 2 2 2 2 2 2 2 2 2 2 2
left_child=-1 -2 3 -3 10 7 -7 -6 -9 11 -4 -10 -8
right_child=1 2 4 -5 5 6 12 8 9 -11 -12 -13 -14
leaf_value=-0.17741344434874401 0.15623999629701887 0.01824735287915576 -0.13291309571266172 0.15836963380758579 0.12233894538879395 0.033927611172199251 -0.096528986811637837 -0.065509981079535054 0.079832182005047783 -0.06878873324394226 -0.033533590912818906 0.016494418423284182 -0.1567931432723999
leaf_weight=13.999999999999998 13.999999999999998 11.000000000000002 10.000000000000002 12.999999999999998 14.999999999999998 14.999999999999998 10.000000000000002 10.999999999999998 14.000000000000002 9.9999999999999982 9.9999999999999982 10.999999999999998 9.9999999999999982
leaf_count=14 14 11 10 13 15 15 10 11 14 10 10 11 10
internal_value=0 0.0161285 0.00211735 0.0941469 -0.0169233 -0.00311074 -0.0578373 0.0282898 -0.00237843 0.0174629 -0.0832233 0.0519636 -0.126661
internal_weight=0 154 140 24 116 96 35 61 46 35 20 25 20
internal_count=168 154 140 24 116 96 35 61 46 35 20 25 20
is_linear=0
shrinkage=0.01


Tree=44
num_leaves=14
num_cat=0
split_feature=7 11 23 11 7 17 7 11 24 10 10 12 15
split_gain=5480.37 4078.54 2291.4 1510.59 2353.1 1715.05 1313.5 1327.55 2035.91 1263.45 606.052 961.106 315.578
threshold=-23.464196117892772 -12.87722109331945 0.16830000000000003 14.836157524898255 6.8969436935261212 26.065000000000001 29.893157699926395 2.7924694148672828 18.500000000000004 1.9060000000000001 3.4375000000000004 452.85750000000007 743.59550000000013
decision_type=2 2 2 2 2 2 2 2 2 2 2 2 2
left_child=2 -2 -1 5 9 6 7 10 12 -5 11 -3 -9
right_child=1 3 -4 4 -6 -7 -8 8 -10 -11 -12 -13 -14
leaf_value=0.057321484706231517 -0.19225815094434301 0.053471905291080458 0.25551635354757307 -0.036935205936431868 0.056386605609547009 -0.10402005431326954 -0.073456328348679975 -0.0059902260303497292 0.20165248697454277 -0.1864458549939669 0.072938016653060919 -0.060841976941416138 0.068731293082237244
leaf_weight=14.000000000000002 12.999999999999998 12.000000000000002 9.9999999999999982 10.000000000000002 10.999999999999998 10.999999999999998 10.999999999999998 10.000000000000002 10.999999999999998 12.999999999999998 9.9999999999999982 19 12.999999999999998
leaf_count=14 13 12 10 10 11 11 11 10 11 13 10 19 13
internal_value=0 -0.0233171 0.139903 -0.00655197 -0.0639087 0.0135524 0.0285908 0.0435577 0.0897583 -0.121441 0.00524501 -0.0165914 0.0362437
internal_weight=0 144 24 131 34 97 86 75 34 23 41 31 23
internal_count=168 144 24 131 34 97 86 75 34 23 41 31 23
is_linear=0
shrinkage=0.01


Tree=45
num_leaves=13
num_cat=0
split_feature=7 11 23 11 7 16 18 7 19 7 7 14
split_gain=5371.31 3997.38 2245.8 1480.53 2320.48 1509.76 1629.25 2244.16 796.04 737.171 502.663 366.696
threshold=-23.464196117892772 -12.87722109331945 0.16830000000000003 14.836157524898255 -4.0097785326470854 24.593500000000002 4.3065000000000007 -1.7176737854980992 5.322000000000001 6.8969436935261212 7.9049606396468093 755.072
decision_type=2 2 2 2 2 2 2 2 2 2 2 2
left_child=2 -2 -1 5 -5 6 7 -3 -8 11 -6 -10
right_child=1 3 -4 4 10 -7 8 -9 9 -11 -12 -13
leaf_value=0.056748269455773478 -0.19033557158250078 0.16030361582835514 0.25296119271218781 -0.16201121602739607 -0.044283462047576883 -0.07535001597134397 0.065482782125473024 -0.0085076685036931717 -0.028430849313735955 -0.088894313573837286 0.055982506513595584 0.050854838013648991
leaf_weight=14.000000000000002 12.999999999999998 18 9.9999999999999982 13.999999999999998 10.000000000000002 15.999999999999998 11.999999999999998 13.999999999999998 14.000000000000002 12.999999999999998 9.9999999999999982 9.9999999999999982
leaf_count=14 13 18 10 14 10 16 12 14 14 13 10 10
internal_value=0 -0.0230839 0.138504 -0.00648645 -0.0632696 0.0134169 0.0309511 0.0864487 -0.00529217 -0.0282462 0.00584952 0.00460485
internal_weight=0 144 24 131 34 97 81 32 49 37 20 24
internal_count=168 144 24 131 34 97 81 32 49 37 20 24
is_linear=0
shrinkage=0.01


Tree=46
num_leaves=13
num_cat=0
split_feature=7 23 16 7 7 18 7 13 10 13 18 8
split_gain=5264.42 2201.11 1795.54 1227.83 1275.76 1165.03 2895.82 3040.71 1189.68 1043.68 1041.08 253.062
threshold=-23.464196117892772 0.16830000000000003 24.593500000000002 29.893157699926395 8.3535926526201951 4.3065000000000007 -1.7176737854980992 -51.039499999999997 3.4375000000000004 -78.42049999999999 1.5545000000000002 1.8611690500000002
decision_type=2 2 2 2 2 2 2 2 2 2 2 2
left_child=1 -1 3 4 5 6 7 -2 9 -7 -4 -11
right_child=2 -3 10 -5 -6 8 -8 -9 -10 11 -12 -13
leaf_value=0.056180787767682747 0.22241272931071845 0.25043158777058128 -0.1757594192028045 -0.092884895290647237 0.083362478415171304 -0.15241500616073614 -0.079127975021089828 -0.012716205255551767 0.043627247214317322 0.0036356757879257178 -0.049703434021457243 -0.062229446555886955
leaf_weight=14.000000000000002 10.999999999999998 9.9999999999999982 10.000000000000002 13.999999999999998 18 10.999999999999995 13.999999999999998 11.000000000000002 11.999999999999998 10.000000000000005 19 13.999999999999998
leaf_count=14 11 10 10 14 18 11 14 11 12 10 19 14
internal_value=0 0.137119 -0.0228531 -0.00512076 0.00704457 -0.00950631 0.0333019 0.104848 -0.0422956 -0.0717549 -0.093171 -0.0347856
internal_weight=0 24 144 115 101 83 36 22 47 35 29 24
internal_count=168 24 144 115 101 83 36 22 47 35 29 24
is_linear=0
shrinkage=0.01


Tree=47
num_leaves=14
num_cat=0
split_feature=11 11 19 12 11 11 23 13 16 19 8 23 9
split_gain=4502.52 2867.56 2048.42 1708.36 2775.01 3668.15 1449.61 987.077 819.77 762.245 465.918 454.919 270.621
threshold=-12.87722109331945 -5.3916305497563473 5.2585000000000006 415.74850000000009 2.7924694148672828 10.161698222627704 -0.060099999999999994 -78.42049999999999 17.685000000000002 8.8885000000000023 2.0562225500000006 0.27830000000000005 0.034000000000000009
decision_type=2 2 2 2 2 2 2 2 2 2 2 2 2
left_child=-1 -2 3 -3 -5 -6 -7 9 -9 -4 -10 -8 -12
right_child=1 2 7 4 5 6 11 8 10 -11 12 -13 -14
leaf_value=-0.17169971908841813 0.15206613191536494 0.16203534996509553 -0.03413622607787449 -0.10211415120533535 0.22788758423924446 0.093000659209031375 -0.090178741529583828 0.066179909922859881 0.0092101780325174326 -0.14938180332156745 -0.10013112896680829 0.0030136680873957549 -0.029694042801856994
leaf_weight=13.999999999999998 13.999999999999998 9.9999999999999982 12.000000000000002 13.999999999999998 9.9999999999999982 12.999999999999991 10.000000000000009 10.999999999999998 15.999999999999998 10.999999999999998 10.000000000000002 10.999999999999998 11.999999999999998
leaf_count=14 14 10 12 14 10 13 10 11 16 11 10 11 12
internal_value=0 0.0156091 0.00196336 0.0413236 0.0205112 0.0595283 0.0100109 -0.0352102 -0.00984282 -0.0892537 -0.0318494 -0.0413637 -0.0617109
internal_weight=0 154 140 68 58 44 34 72 49 23 38 21 22
internal_count=168 154 140 68 58 44 34 72 49 23 38 21 22
is_linear=0
shrinkage=0.01


Tree=48
num_leaves=14
num_cat=0
split_feature=7 11 23 11 7 17 7 11 11 8 17 7 24
split_gain=5105.85 3827.6 2121.21 1418.55 2240.97 1624.79 1228.07 1263.47 1980.14 583.337 580.891 477.623 390.305
threshold=-23.464196117892772 -12.87722109331945 0.16830000000000003 14.836157524898255 -4.0097785326470854 26.065000000000001 29.893157699926395 2.7924694148672828 10.161698222627704 2.7695980000000007 20.968000000000004 7.9049606396468093 34.500000000000007
decision_type=2 2 2 2 2 2 2 2 2 2 2 2 2
left_child=2 -2 -1 5 -5 6 7 9 -9 10 -3 -6 -11
right_child=1 3 -4 4 11 -7 -8 8 -10 12 -12 -13 -14
leaf_value=0.05558247527905872 -0.18616755613913902 -0.0083860566873442018 0.24627511650323869 -0.15888234666415624 -0.042790639638900743 -0.10121958907354962 -0.070818168246610608 0.16834235452115537 0.015447990745306015 0.010474784851074215 0.096921728849411012 0.054946060180664065 -0.077877359867095944
leaf_weight=14.000000000000002 12.999999999999998 11.000000000000002 9.9999999999999982 13.999999999999998 10.000000000000002 10.999999999999998 10.999999999999998 15.999999999999998 18 10.000000000000002 9.9999999999999982 9.9999999999999982 9.9999999999999982
leaf_count=14 13 11 10 14 10 11 11 16 18 10 10 10 10
internal_value=0 -0.0225063 0.135038 -0.0062651 -0.061847 0.0132172 0.0278545 0.0423265 0.0873983 0.00494988 0.0417605 0.00607771 -0.0337013
internal_weight=0 144 24 131 34 97 86 75 34 41 21 20 20
internal_count=168 144 24 131 34 97 86 75 34 41 21 20 20
is_linear=0
shrinkage=0.01


Tree=49
num_leaves=14
num_cat=0
split_feature=7 11 11 7 17 8 7 11 11 8 12 17 7
split_gain=5004.25 3751.43 1390.32 2196.38 1592.46 1331.56 1203.63 1238.33 1940.74 571.729 849.512 569.331 468.118
threshold=-23.464196117892772 -12.87722109331945 14.836157524898255 -4.0097785326470854 26.065000000000001 1.9936592000000002 29.893157699926395 2.7924694148672828 10.161698222627704 2.7695980000000007 789.07050000000015 20.968000000000004 7.9049606396468093
decision_type=2 2 2 2 2 2 2 2 2 2 2 2 2
left_child=5 -2 4 -4 6 -1 7 9 -9 11 -11 -3 -5
right_child=1 2 3 12 -6 -7 -8 8 -10 10 -12 -13 -14
leaf_value=0.22182053244113914 -0.18430588052822994 -0.0083021967045285461 -0.1572935232094356 -0.042362732648849474 -0.10020739474079825 0.070735094291823244 -0.070109986620531833 0.16665893025696277 0.015293510986699 0.031809050142765034 -0.09853759598731994 0.095952508926391608 0.054396604299545293
leaf_weight=10.000000000000002 12.999999999999998 11.000000000000002 13.999999999999998 10.000000000000002 10.999999999999998 13.999999999999998 10.999999999999998 15.999999999999998 18 10.000000000000002 9.9999999999999982 9.9999999999999982 9.9999999999999982
leaf_count=10 13 11 14 10 11 14 11 16 18 10 10 10 10
internal_value=0 -0.0222812 -0.00620244 -0.0612285 0.0130851 0.133687 0.0275759 0.0419032 0.0865243 0.00490038 -0.0333643 0.0413429 0.00601694
internal_weight=0 144 131 34 97 24 86 75 34 41 20 21 20
internal_count=168 144 131 34 97 24 86 75 34 41 20 21 20
is_linear=0
shrinkage=0.01


Tree=50
num_leaves=13
num_cat=0
split_feature=11 11 10 18 8 25 10 11 11 15 17 18
split_gain=4246.2 2776.55 2266.27 1619.95 994.703 1242.25 2167.94 2148.98 1643.71 1437.54 944.741 911.405
threshold=-12.87722109331945 -5.3916305497563473 0.23300000000000001 1.0000000180025095e-35 3.4570778000000004 5.0790000000000015 1.8050000000000004 6.5651935601339533 0.067142250629970118 811.11350000000004 21.331000000000007 7.1110000000000015
decision_type=2 2 2 2 2 2 2 2 2 2 2 2
left_child=-1 -2 3 -3 5 11 9 8 -8 -7 -9 -4
right_child=1 2 4 -5 -6 6 7 10 -10 -11 -12 -13
leaf_value=-0.16674075910023281 0.14943245683397566 0.00087011589922688195 -0.14554333567619318 0.16575788809702946 -0.11190889441967011 0.14763826988637443 -0.039871514760530906 -0.14456426467214309 0.11914998127863957 0.0067421927622386395 -0.032079677283763888 -0.013635950088500976
leaf_weight=13.999999999999998 13.999999999999998 11.000000000000002 10.000000000000002 12.999999999999998 9.9999999999999982 15.000000000000002 13.000000000000002 14.000000000000002 12.999999999999998 13.999999999999998 15.999999999999998 10.999999999999998
leaf_count=14 14 11 10 13 10 15 13 14 13 14 16 11
internal_value=0 0.0151583 0.00173083 0.0901843 -0.0165699 -0.00757565 0.00944012 -0.0269028 0.0396392 0.0796195 -0.0845725 -0.076449
internal_weight=0 154 140 24 116 106 85 56 26 29 30 21
internal_count=168 154 140 24 116 106 85 56 26 29 30 21
is_linear=0
shrinkage=0.01


Tree=51
num_leaves=13
num_cat=0
split_feature=7 11 23 11 7 16 19 7 14 19 7 8
split_gain=4864.62 3604.83 2044.53 1347.28 2141.44 1381.17 1407.78 1150.43 1187.3 884.149 457.958 284.827
threshold=-23.464196117892772 -12.87722109331945 0.16830000000000003 14.836157524898255 -4.0097785326470854 24.593500000000002 5.322000000000001 6.8969436935261212 889.95200000000011 2.3230000000000004 7.9049606396468093 2.0899903000000006
decision_type=2 2 2 2 2 2 2 2 2 2 2 2
left_child=2 -2 -1 5 -5 6 9 8 -8 11 -6 -3
right_child=1 3 -4 4 10 -7 7 -9 -10 -11 -12 -13
leaf_value=0.053803233163697367 -0.18079541417268608 -0.0084566060937941046 0.241017466545105 -0.15523015669413975 -0.041826826810836784 -0.072122606597840783 -0.022150563465224368 -0.08463743839945112 0.11375034785270691 0.12697860086665436 0.053876622200012207 0.063805587788422907
leaf_weight=14.000000000000002 12.999999999999998 10.000000000000002 9.9999999999999982 13.999999999999998 10.000000000000002 15.999999999999998 18.000000000000004 13.999999999999998 9.9999999999999982 17 9.9999999999999982 11.999999999999998
leaf_count=14 13 10 10 14 10 16 18 14 10 17 10 12
internal_value=0 -0.0219682 0.131809 -0.00620671 -0.0603742 0.0127798 0.0295507 -0.0106222 0.0263855 0.0728138 0.0060249 0.0309591
internal_weight=0 144 24 131 34 97 81 42 28 39 20 22
internal_count=168 144 24 131 34 97 81 42 28 39 20 22
is_linear=0
shrinkage=0.01


Tree=52
num_leaves=13
num_cat=0
split_feature=7 11 23 11 7 17 7 11 11 10 12 7
split_gain=4767.82 3533.09 2003.85 1320.46 2098.82 1535.21 1140.38 1215.22 1893.62 569.166 890.98 448.844
threshold=-23.464196117892772 -12.87722109331945 0.16830000000000003 14.836157524898255 -4.0097785326470854 26.065000000000001 29.893157699926395 2.7924694148672828 10.161698222627704 3.4375000000000004 452.85750000000007 7.9049606396468093
decision_type=2 2 2 2 2 2 2 2 2 2 2 2
left_child=2 -2 -1 5 -5 6 7 9 -9 10 -3 -6
right_child=1 3 -4 4 11 -7 -8 8 -10 -11 -12 -13
leaf_value=0.053265196425574153 -0.17898746004471414 0.050467257400353738 0.23860729682445528 -0.15367785743304663 -0.041408558964729301 -0.098585223393006752 -0.068204314363273705 0.16418432913720607 0.014667722483476003 0.069770573139190675 -0.059597260991209433 0.053337859630584718
leaf_weight=14.000000000000002 12.999999999999998 12.000000000000002 9.9999999999999982 13.999999999999998 10.000000000000002 10.999999999999998 10.999999999999998 15.999999999999998 18 9.9999999999999982 19 9.9999999999999982
leaf_count=14 13 12 10 14 10 11 11 16 18 10 19 10
internal_value=0 -0.0217485 0.130491 -0.00614465 -0.0597705 0.012652 0.0268801 0.0408258 0.0850285 0.00416987 -0.0169916 0.00596465
internal_weight=0 144 24 131 34 97 86 75 34 41 31 20
internal_count=168 144 24 131 34 97 86 75 34 41 31 20
is_linear=0
shrinkage=0.01


Tree=53
num_leaves=13
num_cat=0
split_feature=7 23 16 19 7 7 10 18 7 13 13 8
split_gain=4672.94 1963.97 1626.27 1191.45 1087.32 1161.75 1084.44 1390.07 2280.82 2344.47 789.254 222.384
threshold=-23.464196117892772 0.16830000000000003 24.593500000000002 3.3270000000000004 29.893157699926395 8.3535926526201951 3.8105000000000007 4.3065000000000007 -1.7176737854980992 -51.039499999999997 -78.42049999999999 1.8611690500000002
decision_type=2 2 2 2 2 2 2 2 2 2 2 2
left_child=1 -1 4 -4 5 6 7 8 9 -2 -9 -12
right_child=2 -3 3 -5 -6 -7 -8 10 -10 -11 11 -13
leaf_value=0.052732547521591171 0.19877762755751613 0.23622121810913085 -0.17680438470840446 -0.041951310540500442 -0.087244881785341677 0.079620900485250681 0.083475610884753151 -0.13252807478110001 -0.076820732695715765 -0.012783567856319922 0.0026617848873138413 -0.058218430836995447
leaf_weight=14.000000000000002 9.9999999999999982 9.9999999999999982 10.000000000000002 19 13.999999999999998 18 10.999999999999998 11.999999999999995 13.999999999999998 11.000000000000002 10.000000000000005 14.999999999999998
leaf_count=14 10 10 10 19 14 18 11 12 14 11 10 15
internal_value=0 0.129186 -0.021531 -0.0884524 -0.00465521 0.00679286 -0.00900117 -0.0231296 0.0220476 0.0879599 -0.0658647 -0.0338663
internal_weight=0 24 144 29 115 101 83 72 35 21 37 25
internal_count=168 24 144 29 115 101 83 72 35 21 37 25
is_linear=0
shrinkage=0.01


Tree=54
num_leaves=12
num_cat=0
split_feature=7 23 16 7 25 22 10 10 18 8 10
split_gain=4579.95 1924.89 1593.9 1065.68 1323.74 1332.89 1030.71 1142.1 986.14 885.154 757.467
threshold=-23.464196117892772 0.16830000000000003 24.593500000000002 29.893157699926395 9.554000000000002 37.500000000000007 1.8050000000000004 1.2315000000000003 1.5545000000000002 1.7566169500000004 2.7140000000000004
decision_type=2 2 2 2 2 2 2 2 2 2 2
left_child=1 -1 3 4 5 -2 7 -7 -4 -6 -8
right_child=2 -3 8 -5 9 6 10 -9 -10 -11 -12
leaf_value=0.052205219737121028 0.11345608881541662 0.23385901975631715 -0.16794766950607293 -0.086372432240418018 -0.13265809440612789 0.0020104153619872195 -0.072739683013213305 0.13134622877294366 -0.045262677512670824 0.00039484748616814614 0.016553877090152942
leaf_weight=14.000000000000002 13.999999999999998 9.9999999999999982 10.000000000000002 13.999999999999998 10.000000000000002 18.000000000000004 19 10.999999999999998 19 9.9999999999999982 19
leaf_count=14 14 10 10 14 10 18 19 11 19 10 19
internal_value=0 0.127894 -0.0213157 -0.00460866 0.00672494 0.0247142 0.00617113 0.0510688 -0.0875678 -0.0661316 -0.0280929
internal_weight=0 24 144 115 101 81 67 29 29 20 38
internal_count=168 24 144 115 101 81 67 29 29 20 38
is_linear=0
shrinkage=0.01


Tree=55
num_leaves=13
num_cat=0
split_feature=11 11 10 10 8 25 10 11 11 15 17 23
split_gain=3952.65 2607.91 2165.39 1047.06 958.411 1164.1 2048.42 2024.77 1554.4 1386.53 905.006 514.33
threshold=-12.87722109331945 -5.3916305497563473 0.23300000000000001 -0.91699999999999993 3.4570778000000004 5.0790000000000015 1.8050000000000004 6.5651935601339533 0.067142250629970118 811.11350000000004 21.331000000000007 0.068500000000000019
decision_type=2 2 2 2 2 2 2 2 2 2 2 2
left_child=-1 -2 3 -3 5 11 9 8 -8 -7 -9 -4
right_child=1 2 4 -5 -6 6 7 10 -10 -11 -12 -13
leaf_value=-0.16087399210248673 0.14475738278457098 0.016268771615895353 -0.12130641184069889 0.14883226284613976 -0.1098607258796692 0.14404191252092516 -0.039033479507152843 -0.14099846090589249 0.11560744652381309 0.0056680586934089658 -0.030904775261878969 -0.022215376496315001
leaf_weight=13.999999999999998 13.999999999999998 11.000000000000002 11.000000000000002 12.999999999999998 9.9999999999999982 15.000000000000002 13.000000000000002 14.000000000000002 12.999999999999998 13.999999999999998 15.999999999999998 9.9999999999999982
leaf_count=14 14 11 11 13 10 15 13 14 13 14 16 10
internal_value=0 0.0146249 0.00161166 0.088074 -0.0162771 -0.00744845 0.00902339 -0.0263035 0.038287 0.0772407 -0.0822818 -0.0741202
internal_weight=0 154 140 24 116 106 85 56 26 29 30 21
internal_count=168 154 140 24 116 106 85 56 26 29 30 21
is_linear=0
shrinkage=0.01


Tree=56
num_leaves=14
num_cat=0
split_feature=7 11 23 11 7 17 7 11 11 8 12 17 8
split_gain=4457.61 3365.84 1862.67 1254.71 2014.39 1467.8 1063.12 1182.58 1838.18 549.154 791.805 533.483 445.383
threshold=-23.464196117892772 -12.87722109331945 0.16830000000000003 14.836157524898255 -4.0097785326470854 26.065000000000001 29.893157699926395 2.7924694148672828 10.161698222627704 2.7695980000000007 789.07050000000015 20.968000000000004 1.9936592000000002
decision_type=2 2 2 2 2 2 2 2 2 2 2 2 2
left_child=2 -2 -1 5 -5 6 7 9 -9 11 -11 -3 -6
right_child=1 3 -4 4 12 -7 -8 8 -10 10 -12 -13 -14
leaf_value=0.051718882492610377 -0.17450120935073266 -0.0086003748462958746 0.23041264605522155 -0.15007154617990767 0.053516896963119488 -0.096244114474816747 -0.065371223064986148 0.16149440504610538 0.014182713627815247 0.029159711897373191 -0.096681844472885137 0.092318760395050048 -0.040863531351089478
leaf_weight=14.000000000000002 12.999999999999998 11.000000000000002 9.9999999999999982 13.999999999999998 10.000000000000002 10.999999999999998 10.999999999999998 15.999999999999998 18 10.000000000000002 9.9999999999999982 9.9999999999999982 9.9999999999999982
leaf_count=14 13 11 10 14 10 11 11 16 18 10 10 10 10
internal_value=0 -0.0210291 0.126175 -0.00579905 -0.0580726 0.0125236 0.0264358 0.0399008 0.0835059 0.00374054 -0.0337611 0.0394564 0.00632668
internal_weight=0 144 24 131 34 97 86 75 34 41 20 21 20
internal_count=168 144 24 131 34 97 86 75 34 41 20 21 20
is_linear=0
shrinkage=0.01


Tree=57
num_leaves=14
num_cat=0
split_feature=7 11 23 11 7 23 18 10 22 24 11 23 19
split_gain=4368.9 3298.86 1825.6 1229.74 1976.78 1175.34 1565.66 1150.72 1149.02 1034.31 572.087 508.402 353.74
threshold=-23.464196117892772 -12.87722109331945 0.16830000000000003 14.836157524898255 6.8969436935261212 0.096100000000000019 4.509500000000001 1.9060000000000001 38.500000000000007 18.500000000000004 0.067142250629970118 0.19139999999999999 5.2585000000000006
decision_type=2 2 2 2 2 2 2 2 2 2 2 2 2
left_child=2 -2 -1 5 7 8 9 -5 10 -7 -3 -8 -10
right_child=1 3 -4 4 -6 6 11 -9 12 -11 -12 -13 -14
leaf_value=0.051201692223548881 -0.17275619626045227 -0.10717536236558639 0.22810852336883547 -0.029575857162475575 0.052765359011563387 0.038916705161333075 0.044193634291489911 -0.1722602829566369 0.079417000293731665 0.17943661328066479 -0.019643178172409535 -0.044508864198412212 -0.0046948516368865972
leaf_weight=14.000000000000002 12.999999999999998 14.000000000000002 9.9999999999999982 10.000000000000002 10.999999999999998 10.000000000000002 12.000000000000002 12.999999999999998 10.000000000000002 10.999999999999998 15.999999999999998 13.999999999999998 9.9999999999999982
leaf_count=14 13 14 10 10 11 10 12 13 10 11 16 14 10
internal_value=0 -0.0208188 0.124913 -0.00574106 -0.0574919 0.0123984 0.0483015 -0.110224 -0.0213505 0.112522 -0.0604915 -0.00356925 0.0373611
internal_weight=0 144 24 131 34 97 47 23 50 21 30 26 20
internal_count=168 144 24 131 34 97 47 23 50 21 30 26 20
is_linear=0
shrinkage=0.01


Tree=58
num_leaves=15
num_cat=0
split_feature=7 11 23 10 11 7 17 7 8 7 18 12 8 18
split_gain=4283.03 3084.99 2092.67 1265.94 1215.93 2312.65 1358.41 989.305 1053.78 856.651 1246.57 1120.76 431.56 187.33
threshold=-18.907978101218138 -12.87722109331945 0.24245000000000003 1.4965000000000002 14.836157524898255 -4.0097785326470854 26.065000000000001 29.893157699926395 4.1434030000000002 -1.7176737854980992 4.0220000000000011 508.32950000000005 1.9936592000000002 7.2340000000000009
decision_type=2 2 2 2 2 2 2 2 2 2 2 2 2 2
left_child=2 -2 3 -1 6 -6 7 8 9 10 -3 -11 -7 -12
right_child=1 4 -4 -5 5 12 -8 -9 -10 11 13 -13 -14 -15
leaf_value=0.12879498410224904 -0.17675003975629808 0.1550636692245802 0.22640765094757079 -0.030324059963226319 -0.16493506449919479 0.052843783378601059 -0.094793841134418133 -0.064693118523467666 -0.048200284043947862 0.089439311027526766 0.0038630990982055653 -0.049171951072556633 -0.040060447931289669 0.065072538614273062
leaf_weight=10.000000000000005 11.999999999999998 14.999999999999991 9.9999999999999982 9.9999999999999982 12.999999999999998 10.000000000000002 10.999999999999998 10.999999999999998 11.999999999999998 10.000000000000009 10.000000000000002 13.999999999999998 9.9999999999999982 9.9999999999999982
leaf_count=10 12 15 10 10 13 10 11 11 12 10 10 14 10 10
internal_value=0 -0.0235419 0.108293 0.0492355 -0.00895068 -0.0611007 0.00955416 0.0235521 0.0372239 0.0545983 0.0861518 0.00858274 0.00639167 0.0344678
internal_weight=0 138 30 20 126 33 93 82 71 59 35 24 20 20
internal_count=168 138 30 20 126 33 93 82 71 59 35 24 20 20
is_linear=0
shrinkage=0.01


Tree=59
num_leaves=13
num_cat=0
split_feature=7 11 23 11 7 17 10 7 11 11 10 12
split_gain=4202.75 3179.02 1762.73 1182.36 1911.06 1394.44 1117.49 1016.58 1129.04 1779.05 529.684 832.54
threshold=-23.464196117892772 -12.87722109331945 0.16830000000000003 14.836157524898255 6.8969436935261212 26.065000000000001 1.9060000000000001 29.893157699926395 2.7924694148672828 10.161698222627704 3.4375000000000004 452.85750000000007
decision_type=2 2 2 2 2 2 2 2 2 2 2 2
left_child=2 -2 -1 5 6 7 -5 8 10 -10 11 -3
right_child=1 3 -4 4 -6 -7 -8 -9 9 -11 -12 -13
leaf_value=0.050083661462579442 -0.16957125374904045 0.048358324269453669 0.22391771316528319 -0.028734659433364857 0.05204709963365034 -0.093845901706001988 -0.16934402245741623 -0.06404618723825975 0.15822627916932105 0.013303487267759111 0.066848118543624879 -0.058035402439142535
leaf_weight=14.000000000000002 12.999999999999998 12.000000000000002 9.9999999999999982 10.000000000000002 10.999999999999998 10.999999999999998 12.999999999999998 10.999999999999998 15.999999999999998 18 9.9999999999999982 19
leaf_count=14 13 12 10 10 11 11 13 11 16 18 10 19
internal_value=0 -0.0204191 0.122515 -0.00561773 -0.0563618 0.0121689 -0.10821 0.0257289 0.0388959 0.0815024 0.00356362 -0.0168507
internal_weight=0 144 24 131 34 97 23 86 75 34 41 31
internal_count=168 144 24 131 34 97 23 86 75 34 41 31
is_linear=0
shrinkage=0.01


Tree=60
num_leaves=15
num_cat=0
split_feature=7 11 23 10 11 7 17 7 8 7 18 12 8 18
split_gain=4123.71 2964.52 2022.02 1238.85 1168.44 2236.35 1304.35 949.809 1019.84 836.464 1213.36 1094.53 418.17 182.97
threshold=-18.907978101218138 -12.87722109331945 0.24245000000000003 1.4965000000000002 14.836157524898255 -4.0097785326470854 26.065000000000001 29.893157699926395 4.1434030000000002 -1.7176737854980992 4.0220000000000011 508.32950000000005 1.9936592000000002 7.2340000000000009
decision_type=2 2 2 2 2 2 2 2 2 2 2 2 2 2
left_child=2 -2 3 -1 6 -6 7 8 9 10 -3 -11 -7 -12
right_child=1 4 -4 -5 5 12 -8 -9 -10 11 13 -13 -14 -15
leaf_value=0.12691118168830864 -0.17328682318329811 0.15271555352211005 0.2223635802268982 -0.030496018171310424 -0.16202491631874671 0.052177827596664415 -0.092907443588430227 -0.063405724899335353 -0.047581236163775131 0.087983045816421426 0.0034907209873199451 -0.048996482491493229 -0.039273798227310183 0.063983755588531491
leaf_weight=10.000000000000005 11.999999999999998 14.999999999999991 9.9999999999999982 9.9999999999999982 12.999999999999998 10.000000000000002 10.999999999999998 10.999999999999998 11.999999999999998 10.000000000000009 10.000000000000002 13.999999999999998 9.9999999999999982 9.9999999999999982
leaf_count=10 12 15 10 10 13 10 11 11 12 10 10 14 10 10
internal_value=0 -0.0230999 0.10626 0.0482076 -0.00879639 -0.0599177 0.00934342 0.02306 0.0364561 0.0535484 0.0847279 0.00807832 0.00645201 0.0337372
internal_weight=0 138 30 20 126 33 93 82 71 59 35 24 20 20
internal_count=168 138 30 20 126 33 93 82 71 59 35 24 20 20
is_linear=0
shrinkage=0.01


Tree=61
num_leaves=14
num_cat=0
split_feature=7 11 23 11 7 17 10 7 11 11 17 12 19
split_gain=4042.84 3063.63 1702.03 1136.82 1847.51 1339.94 1085.24 976.958 1091.2 1733.87 524.063 791.431 819.518
threshold=-23.464196117892772 -12.87722109331945 0.16830000000000003 14.836157524898255 6.8969436935261212 26.065000000000001 1.9060000000000001 29.893157699926395 2.7924694148672828 10.161698222627704 22.947500000000002 810.26300000000003 5.322000000000001
decision_type=2 2 2 2 2 2 2 2 2 2 2 2 2
left_child=2 -2 -1 5 6 7 -5 8 10 -10 11 12 -3
right_child=1 3 -4 4 -6 -7 -8 -9 9 -11 -12 -13 -14
leaf_value=0.048988316612584237 -0.16644701950825178 0.083489331722259461 0.21980321192741392 -0.02791265928745269 0.051337402733889495 -0.091978368759155271 -0.16647837712214542 -0.062771666971119966 0.15577444925904274 0.012703378531667921 0.066356959283351905 -0.090117534160614007 -0.041592029007998382
leaf_weight=14.000000000000002 12.999999999999998 10.000000000000005 9.9999999999999982 10.000000000000002 10.999999999999998 10.999999999999998 12.999999999999998 10.999999999999998 15.999999999999998 18 9.9999999999999982 9.9999999999999982 10.999999999999998
leaf_count=14 13 10 10 10 11 11 13 11 16 18 10 10 11
internal_value=0 -0.0200269 0.120161 -0.00549662 -0.0552539 0.0119441 -0.106232 0.0252365 0.0381444 0.0800309 0.00340915 -0.0168966 0.0179705
internal_weight=0 144 24 131 34 97 23 86 75 34 41 31 21
internal_count=168 144 24 131 34 97 23 86 75 34 41 31 21
is_linear=0
shrinkage=0.01


Tree=62
num_leaves=11
num_cat=0
split_feature=7 16 12 18 7 7 25 18 19 13
split_gain=3966.78 1507.59 1233.89 1119.28 887.107 1120.7 2040.53 937.083 2418.01 1207.24
threshold=-18.907978101218138 24.593500000000002 1127.9970000000003 4.509500000000001 29.893157699926395 11.33186994384919 9.554000000000002 4.509500000000001 2.3230000000000004 -51.039499999999997
decision_type=2 2 2 2 2 2 2 2 2 2
left_child=2 4 -1 -3 5 6 7 8 -2 -9
right_child=1 3 -4 -5 -6 -7 -8 9 -10 -11
leaf_value=0.18850456627932455 -0.032518509170588329 -0.1560826705052302 0.055420796933927034 -0.029308380285898845 -0.080344513697283612 0.081264398023486145 -0.12007208151476724 -0.083513785775970018 0.13875943824648856 0.037509684562683103
leaf_weight=11.000000000000002 17 13.000000000000002 19 14.999999999999998 13.999999999999998 15.999999999999998 13.999999999999998 17 15.999999999999998 15.999999999999998
leaf_count=11 17 13 19 15 14 16 14 17 16 16
internal_value=0 -0.0226561 0.104218 -0.0881679 -0.00598041 0.00486436 -0.0104157 0.0128448 0.0505253 -0.0248357
internal_weight=0 138 30 28 110 96 80 66 33 33
internal_count=168 138 30 28 110 96 80 66 33 33
is_linear=0
shrinkage=0.01


Tree=63
num_leaves=13
num_cat=0
split_feature=7 11 8 11 7 17 7 11 11 10 12 8
split_gain=3896.19 2978.16 1209.64 1109.19 1807.31 1295.46 940.494 1063.97 1680.59 515.318 789.752 402.737
threshold=-23.464196117892772 -12.87722109331945 1.9936592000000002 14.836157524898255 -4.0097785326470854 26.065000000000001 29.893157699926395 2.7924694148672828 10.161698222627704 3.4375000000000004 452.85750000000007 1.9936592000000002
decision_type=2 2 2 2 2 2 2 2 2 2 2 2
left_child=2 -2 -1 5 -5 6 7 9 -9 10 -3 -6
right_child=1 3 -4 4 11 -7 -8 8 -10 -11 -12 -13
leaf_value=0.20196297097206109 -0.16402365895991142 0.046704614957173651 0.057960884911673408 -0.14162532210350037 0.051390439748764019 -0.090289775783365431 -0.061386902007189666 0.15355911098420622 0.012703461415237852 0.065749357938766476 -0.05691899352952054 -0.038357719898223883
leaf_weight=10.000000000000002 12.999999999999998 12.000000000000002 13.999999999999998 13.999999999999998 10.000000000000002 10.999999999999998 10.999999999999998 15.999999999999998 18 9.9999999999999982 19 9.9999999999999982
leaf_count=10 13 12 14 14 10 11 11 16 18 10 19 10
internal_value=0 -0.0196603 0.117962 -0.00533416 -0.0544832 0.0118933 0.0249633 0.0376279 0.0789885 0.00332898 -0.0168066 0.00651636
internal_weight=0 144 24 131 34 97 86 75 34 41 31 20
internal_count=168 144 24 131 34 97 86 75 34 41 31 20
is_linear=0
shrinkage=0.01


Tree=64
num_leaves=15
num_cat=0
split_feature=7 11 23 10 11 7 17 7 23 13 11 18 13 18
split_gain=3822.03 2768.7 1944.08 1218.33 1099.12 2108.78 1212 878.841 857.083 1279.25 1165.58 2234.44 519.659 387.753
threshold=-18.907978101218138 -12.87722109331945 0.24245000000000003 1.4965000000000002 14.836157524898255 -4.0097785326470854 26.065000000000001 29.893157699926395 0.018250000000000006 -42.161999999999992 10.161698222627704 5.8105000000000002 -37.639999999999993 5.9450000000000012
decision_type=2 2 2 2 2 2 2 2 2 2 2 2 2 2
left_child=2 -2 3 -1 6 -6 7 8 12 10 11 -10 -3 -7
right_child=1 4 -4 -5 5 13 -8 -9 9 -11 -12 -13 -14 -15
leaf_value=0.12342585945129386 -0.16738093235840398 -0.045443653017282475 0.21614333343505859 -0.032672098278999327 -0.15714960410044743 -0.037580218791961655 -0.089386876821517941 -0.060773033608089798 0.22660461661716308 -0.03692149913311002 0.0070809301463040444 0.02928898572921753 0.04384265444495461 0.050482614159584049
leaf_weight=10.000000000000005 11.999999999999998 16.000000000000004 9.9999999999999982 9.9999999999999982 12.999999999999998 10.000000000000002 10.999999999999998 10.999999999999998 11.999999999999995 10.000000000000005 10.999999999999998 10.999999999999998 10.999999999999998 9.9999999999999982
leaf_count=10 12 16 10 10 13 10 11 11 12 10 11 11 11 10
internal_value=0 -0.0222389 0.102299 0.0453769 -0.00841587 -0.0579976 0.00917765 0.0223997 0.0352856 0.0625025 0.0917448 0.132236 -0.00906775 0.0064512
internal_weight=0 138 30 20 126 33 93 82 71 44 34 23 27 20
internal_count=168 138 30 20 126 33 93 82 71 44 34 23 27 20
is_linear=0
shrinkage=0.01


Tree=65
num_leaves=13
num_cat=0
split_feature=7 11 23 11 7 17 7 12 25 23 9 23
split_gain=3747.84 2870.19 1627.23 1066.48 1741.47 1244.85 908.153 1563.75 1503.09 938.281 666.594 660.283
threshold=-23.464196117892772 -12.87722109331945 0.16830000000000003 14.836157524898255 6.8969436935261212 26.065000000000001 -1.7176737854980992 415.74850000000009 8.8250000000000011 0.096100000000000019 0.059000000000000004 0.054450000000000005
decision_type=2 2 2 2 2 2 2 2 2 2 2 2
left_child=2 -2 -1 5 10 6 8 -8 9 -3 -5 -9
right_child=1 3 -4 4 -6 -7 7 11 -10 -11 -12 -13
leaf_value=0.046102736336844301 -0.16100462947900479 0.044789744405185468 0.21312202644348144 -0.15444880286852514 0.050075229514728897 -0.088493008830330594 0.083794942001501713 -0.11304289042949674 -0.02462848547846079 0.15533979007175991 -0.046676360043612392 -0.012398228272795677
leaf_weight=14.000000000000002 12.999999999999998 17.000000000000004 9.9999999999999982 12.000000000000002 10.999999999999998 10.999999999999998 11.999999999999998 11.000000000000002 15.999999999999998 13.999999999999998 10.999999999999998 15.999999999999998
leaf_count=14 13 17 10 12 11 11 12 11 16 14 11 16
internal_value=0 -0.0192824 0.115694 -0.00521831 -0.0534117 0.0116742 0.0244863 -0.0111873 0.0540878 0.0947156 -0.102905 -0.0534016
internal_weight=0 144 24 131 34 97 86 39 47 31 23 27
internal_count=168 144 24 131 34 97 86 39 47 31 23 27
is_linear=0
shrinkage=0.01


Tree=66
num_leaves=13
num_cat=0
split_feature=11 11 10 18 8 25 10 11 11 11 17 23
split_gain=3249.72 2392.85 1952.65 1385.08 893.663 1029.06 1390.6 1131.61 1575.42 999.774 479.796 327.109
threshold=-12.87722109331945 -5.3916305497563473 0.23300000000000001 1.0000000180025095e-35 3.4570778000000004 4.6420000000000003 2.3835000000000002 2.7924694148672828 13.479091679173917 6.5651935601339533 21.331000000000007 0.12430000000000001
decision_type=2 2 2 2 2 2 2 2 2 2 2 2
left_child=-1 -2 3 -3 5 -4 7 -7 -9 11 -11 -8
right_child=1 2 4 -5 -6 6 9 8 -10 10 -12 -13
